{"learner":{"attributes":{"scikit_learn":"{\"_estimator_type\": \"regressor\"}"},"feature_names":["ConfirmedCases","Fatalities","cases_ma7","fatal_ma7","case_growth_rate","fatal_growth_rate","dayofweek","weekofyear"],"feature_types":["float","float","float","float","float","float","int","int"],"gradient_booster":{"model":{"cats":{"enc":[],"feature_segments":[],"sorted_idx":[]},"gbtree_model_param":{"num_parallel_tree":"1","num_trees":"700"},"iteration_indptr":[0,1,2,3,4,5,6,7,8,9,10,11,12,13,14,15,16,17,18,19,20,21,22,23,24,25,26,27,28,29,30,31,32,33,34,35,36,37,38,39,40,41,42,43,44,45,46,47,48,49,50,51,52,53,54,55,56,57,58,59,60,61,62,63,64,65,66,67,68,69,70,71,72,73,74,75,76,77,78,79,80,81,82,83,84,85,86,87,88,89,90,91,92,93,94,95,96,97,98,99,100,101,102,103,104,105,106,107,108,109,110,111,112,113,114,115,116,117,118,119,120,121,122,123,124,125,126,127,128,129,130,131,132,133,134,135,136,137,138,139,140,141,142,143,144,145,146,147,148,149,150,151,152,153,154,155,156,157,158,159,160,161,162,163,164,165,166,167,168,169,170,171,172,173,174,175,176,177,178,179,180,181,182,183,184,185,186,187,188,189,190,191,192,193,194,195,196,197,198,199,200,201,202,203,204,205,206,207,208,209,210,211,212,213,214,215,216,217,218,219,220,221,222,223,224,225,226,227,228,229,230,231,232,233,234,235,236,237,238,239,240,241,242,243,244,245,246,247,248,249,250,251,252,253,254,255,256,257,258,259,260,261,262,263,264,265,266,267,268,269,270,271,272,273,274,275,276,277,278,279,280,281,282,283,284,285,286,287,288,289,290,291,292,293,294,295,296,297,298,299,300,301,302,303,304,305,306,307,308,309,310,311,312,313,314,315,316,317,318,319,320,321,322,323,324,325,326,327,328,329,330,331,332,333,334,335,336,337,338,339,340,341,342,343,344,345,346,347,348,349,350,351,352,353,354,355,356,357,358,359,360,361,362,363,364,365,366,367,368,369,370,371,372,373,374,375,376,377,378,379,380,381,382,383,384,385,386,387,388,389,390,391,392,393,394,395,396,397,398,399,400,401,402,403,404,405,406,407,408,409,410,411,412,413,414,415,416,417,418,419,420,421,422,423,424,425,426,427,428,429,430,431,432,433,434,435,436,437,438,439,440,441,442,443,444,445,446,447,448,449,450,451,452,453,454,455,456,457,458,459,460,461,462,463,464,465,466,467,468,469,470,471,472,473,474,475,476,477,478,479,480,481,482,483,484,485,486,487,488,489,490,491,492,493,494,495,496,497,498,499,500,501,502,503,504,505,506,507,508,509,510,511,512,513,514,515,516,517,518,519,520,521,522,523,524,525,526,527,528,529,530,531,532,533,534,535,536,537,538,539,540,541,542,543,544,545,546,547,548,549,550,551,552,553,554,555,556,557,558,559,560,561,562,563,564,565,566,567,568,569,570,571,572,573,574,575,576,577,578,579,580,581,582,583,584,585,586,587,588,589,590,591,592,593,594,595,596,597,598,599,600,601,602,603,604,605,606,607,608,609,610,611,612,613,614,615,616,617,618,619,620,621,622,623,624,625,626,627,628,629,630,631,632,633,634,635,636,637,638,639,640,641,642,643,644,645,646,647,648,649,650,651,652,653,654,655,656,657,658,659,660,661,662,663,664,665,666,667,668,669,670,671,672,673,674,675,676,677,678,679,680,681,682,683,684,685,686,687,688,689,690,691,692,693,694,695,696,697,698,699,700],"tree_info":[0,0,0,0,0,0,0,0,0,0,0,0,0,0,0,0,0,0,0,0,0,0,0,0,0,0,0,0,0,0,0,0,0,0,0,0,0,0,0,0,0,0,0,0,0,0,0,0,0,0,0,0,0,0,0,0,0,0,0,0,0,0,0,0,0,0,0,0,0,0,0,0,0,0,0,0,0,0,0,0,0,0,0,0,0,0,0,0,0,0,0,0,0,0,0,0,0,0,0,0,0,0,0,0,0,0,0,0,0,0,0,0,0,0,0,0,0,0,0,0,0,0,0,0,0,0,0,0,0,0,0,0,0,0,0,0,0,0,0,0,0,0,0,0,0,0,0,0,0,0,0,0,0,0,0,0,0,0,0,0,0,0,0,0,0,0,0,0,0,0,0,0,0,0,0,0,0,0,0,0,0,0,0,0,0,0,0,0,0,0,0,0,0,0,0,0,0,0,0,0,0,0,0,0,0,0,0,0,0,0,0,0,0,0,0,0,0,0,0,0,0,0,0,0,0,0,0,0,0,0,0,0,0,0,0,0,0,0,0,0,0,0,0,0,0,0,0,0,0,0,0,0,0,0,0,0,0,0,0,0,0,0,0,0,0,0,0,0,0,0,0,0,0,0,0,0,0,0,0,0,0,0,0,0,0,0,0,0,0,0,0,0,0,0,0,0,0,0,0,0,0,0,0,0,0,0,0,0,0,0,0,0,0,0,0,0,0,0,0,0,0,0,0,0,0,0,0,0,0,0,0,0,0,0,0,0,0,0,0,0,0,0,0,0,0,0,0,0,0,0,0,0,0,0,0,0,0,0,0,0,0,0,0,0,0,0,0,0,0,0,0,0,0,0,0,0,0,0,0,0,0,0,0,0,0,0,0,0,0,0,0,0,0,0,0,0,0,0,0,0,0,0,0,0,0,0,0,0,0,0,0,0,0,0,0,0,0,0,0,0,0,0,0,0,0,0,0,0,0,0,0,0,0,0,0,0,0,0,0,0,0,0,0,0,0,0,0,0,0,0,0,0,0,0,0,0,0,0,0,0,0,0,0,0,0,0,0,0,0,0,0,0,0,0,0,0,0,0,0,0,0,0,0,0,0,0,0,0,0,0,0,0,0,0,0,0,0,0,0,0,0,0,0,0,0,0,0,0,0,0,0,0,0,0,0,0,0,0,0,0,0,0,0,0,0,0,0,0,0,0,0,0,0,0,0,0,0,0,0,0,0,0,0,0,0,0,0,0,0,0,0,0,0,0,0,0,0,0,0,0,0,0,0,0,0,0,0,0,0,0,0,0,0,0,0,0,0,0,0,0,0,0,0,0,0,0,0,0,0,0,0,0,0,0,0,0,0,0,0,0,0,0,0,0,0,0,0,0,0,0,0,0,0,0,0,0,0,0,0,0,0,0,0,0,0,0,0,0,0,0,0,0,0,0,0,0,0,0,0,0,0,0,0,0,0,0,0,0,0,0,0,0,0,0,0,0,0,0,0,0,0,0,0,0,0,0,0,0,0,0,0,0,0,0,0,0,0,0,0,0,0,0,0,0,0,0,0,0,0,0,0,0,0,0,0,0,0,0,0,0],"trees":[{"base_weights":[1.7955384E-1,-1.533138E1,3.8720417E3,-1.8349707E1,9.9570233E2,2.8128677E3,7.010979E3,-1.9589252E1,1.7570607E2,1.8724588E1,1.2845217E3,5.963545E1,8.966095E1,7.1113174E1,2.3343172E2,-2.032368E1,2.3383596E1,1.2741997E2,3.114884E2,1.608838E1,3.9564445E1,-2.0806387E1,-1.15039425E1,1.2275922E1,5.5426403E1,1.05953735E2,1.6743909E2,4.234057E0,9.968049E0,-6.2905353E-1,-5.380142E-1,-4.0083653E-1,-1.2129862E-1,2.0926355E-1,7.28749E-1,1.2026523E0,1.90562E0,2.0048144E0,3.3464425E0,3.3458142E0,5.610693E0],"categories":[],"categories_nodes":[],"categories_segments":[],"categories_sizes":[],"default_left":[0,0,0,0,0,0,0,0,0,0,0,0,0,0,0,0,0,0,0,0,0,0,0,0,0,0,0,0,0,0,0,0,0,0,0,0,0,0,0,0,0],"id":0,"left_children":[1,3,5,7,9,11,13,15,17,-1,19,-1,-1,-1,-1,21,23,25,27,-1,-1,29,31,33,35,37,39,-1,-1,-1,-1,-1,-1,-1,-1,-1,-1,-1,-1,-1,-1],"loss_changes":[1.1138015E9,5.638797E7,2.2630554E8,4.433728E6,5.100348E6,2.327584E6,4.5879936E7,5.78096E5,7.2740925E5,0E0,6.2532E4,0E0,0E0,0E0,0E0,7.63715E4,1.0894328E5,5.78565E4,5.93025E4,0E0,0E0,7.566E3,1.2915648E4,1.4479008E4,7.261375E3,5.678875E3,1.08963125E4,0E0,0E0,0E0,0E0,0E0,0E0,0E0,0E0,0E0,0E0,0E0,0E0,0E0,0E0],"parents":[2147483647,0,0,1,1,2,2,3,3,4,4,5,5,6,6,7,7,8,8,10,10,15,15,16,16,17,17,18,18,21,21,22,22,23,23,24,24,25,25,26,26],"right_children":[2,4,6,8,10,12,14,16,18,-1,20,-1,-1,-1,-1,22,24,26,28,-1,-1,30,32,34,36,38,40,-1,-1,-1,-1,-1,-1,-1,-1,-1,-1,-1,-1,-1,-1],"split_conditions":[1.2798572E3,2.5342857E2,3.1641428E3,6.157143E1,5.512857E2,1.9537142E3,2.5094845E-4,1.3142858E1,1.4185715E2,1.8724588E1,7E0,5.963545E1,8.966095E1,7.1113174E1,2.3343172E2,3.142857E0,3.342857E1,1.0185714E2,1.2195122E-1,1.608838E1,3.9564445E1,1.1428572E0,8.285714E0,2.2428572E1,1.4878543E-1,2.173913E-2,1.4878543E-1,4.234057E0,9.968049E0,-6.2905353E-1,-5.380142E-1,-4.0083653E-1,-1.2129862E-1,2.0926355E-1,7.28749E-1,1.2026523E0,1.90562E0,2.0048144E0,3.3464425E0,3.3458142E0,5.610693E0],"split_indices":[3,3,3,3,3,3,4,3,3,0,7,0,0,0,0,3,3,3,5,0,0,3,3,3,5,4,5,0,0,0,0,0,0,0,0,0,0,0,0,0,0],"split_type":[0,0,0,0,0,0,0,0,0,0,0,0,0,0,0,0,0,0,0,0,0,0,0,0,0,0,0,0,0,0,0,0,0,0,0,0,0,0,0,0,0],"sum_hessian":[1.8544E4,1.8471E4,7.3E1,1.8417E4,5.4E1,5.6E1,1.7E1,1.8301E4,1.16E2,2.5E1,2.9E1,1.2E1,4.4E1,3E0,1.4E1,1.7994E4,3.07E2,8.7E1,2.9E1,2E0,2.7E1,1.7059E4,9.35E2,2.29E2,7.8E1,5.9E1,2.8E1,4E0,2.5E1,1.6142E4,9.17E2,7.48E2,1.87E2,1.6E2,6.9E1,2.9E1,4.9E1,9E0,5E1,9E0,1.9E1],"tree_param":{"num_deleted":"0","num_feature":"8","num_nodes":"41","size_leaf_vector":"1"}},{"base_weights":[4.7588515E-1,-1.49254875E1,3.6941987E3,-1.7847347E1,9.2909717E2,2.6469324E3,6.979854E3,-1.8976122E1,1.7185721E2,1.8512947E1,1.2301996E3,5.729807E1,8.489146E1,1.241186E2,2.4169089E2,-1.967522E1,2.7267298E1,1.2677721E2,3.0407138E2,2.901424E1,4.272529E1,-2.010701E1,-7.9863634E0,1.649503E1,5.4973114E1,1.048355E2,5.0520935E0,7.0587378E0,1.0533964E1,-6.114593E-1,-5.1259536E-1,-3.3173737E-1,-5.0255883E-2,2.8157535E-1,7.7506924E-1,1.271605E0,1.8551179E0,2.6388884E0,3.484475E0],"categories":[],"categories_nodes":[],"categories_segments":[],"categories_sizes":[],"default_left":[0,0,0,0,0,0,0,0,0,0,0,0,0,0,0,0,0,0,0,0,0,0,0,0,0,0,0,0,0,0,0,0,0,0,0,0,0,0,0],"id":1,"left_children":[1,3,5,7,9,11,13,15,17,-1,19,-1,-1,-1,-1,21,23,25,27,-1,-1,29,31,33,35,37,-1,-1,-1,-1,-1,-1,-1,-1,-1,-1,-1,-1,-1],"loss_changes":[1.05493677E9,5.0954148E7,2.464784E8,3.945674E6,4.595628E6,2.678048E6,2.1749376E7,5.92251E5,6.111145E5,0E0,5.138E4,0E0,0E0,0E0,0E0,9.08435E4,8.057128E4,5.8152875E4,4.77625E3,0E0,0E0,1.40935E4,1.2465457E4,1.2905531E4,3.944875E3,6.63875E2,0E0,0E0,0E0,0E0,0E0,0E0,0E0,0E0,0E0,0E0,0E0,0E0,0E0],"parents":[2147483647,0,0,1,1,2,2,3,3,4,4,5,5,6,6,7,7,8,8,10,10,15,15,16,16,17,17,18,18,21,21,22,22,23,23,24,24,25,25],"right_children":[2,4,6,8,10,12,14,16,18,-1,20,-1,-1,-1,-1,22,24,26,28,-1,-1,30,32,34,36,38,-1,-1,-1,-1,-1,-1,-1,-1,-1,-1,-1,-1,-1],"split_conditions":[1.812E3,4.65E2,4.032E3,1.05E2,8.71E2,2.503E3,6.7707E4,2.5E1,2.43E2,1.8512947E1,1.331E3,5.729807E1,8.489146E1,1.241186E2,2.4169089E2,7E0,6E1,1.61E2,3.5E2,2.901424E1,4.272529E1,2E0,1.5E1,3.9E1,7.5E1,1.28E2,5.0520935E0,7.0587378E0,1.0533964E1,-6.114593E-1,-5.1259536E-1,-3.3173737E-1,-5.0255883E-2,2.8157535E-1,7.7506924E-1,1.271605E0,1.8551179E0,2.6388884E0,3.484475E0],"split_indices":[1,1,1,1,1,1,0,1,1,0,1,0,0,0,0,1,1,1,1,0,0,1,1,1,1,1,0,0,0,0,0,0,0,0,0,0,0,0,0],"split_type":[0,0,0,0,0,0,0,0,0,0,0,0,0,0,0,0,0,0,0,0,0,0,0,0,0,0,0,0,0,0,0,0,0,0,0,0,0,0,0],"sum_hessian":[1.8542E4,1.8466E4,7.6E1,1.841E4,5.6E1,5.9E1,1.7E1,1.8302E4,1.08E2,2.9E1,2.7E1,1.4E1,4.5E1,6E0,1.1E1,1.803E4,2.72E2,8.2E1,2.6E1,1.4E1,1.3E1,1.7387E4,6.43E2,1.97E2,7.5E1,5.6E1,2.6E1,1.3E1,1.3E1,1.5931E4,1.456E3,4.32E2,2.11E2,1.13E2,8.4E1,2.9E1,4.6E1,2.6E1,3E1],"tree_param":{"num_deleted":"0","num_feature":"8","num_nodes":"39","size_leaf_vector":"1"}},{"base_weights":[3.7172514E-1,-1.43160095E1,3.5605964E3,-1.724201E1,9.287236E2,2.5526147E3,6.6667256E3,-1.8409332E1,1.681771E2,1.7225576E1,3.7537086E1,5.713641E1,8.190785E1,1.2092698E2,2.2946191E2,-1.9058105E1,2.876642E1,1.2095893E2,9.120971E0,-1.9471985E1,-6.478303E0,1.7846884E1,5.278452E1,1.0069812E2,4.801649E0,-5.914801E-1,-4.6749938E-1,-2.937164E-1,-1.893207E-2,3.399759E-1,7.8962576E-1,1.3574394E0,1.8925048E0,2.5523663E0,3.4044418E0],"categories":[],"categories_nodes":[],"categories_segments":[],"categories_sizes":[],"default_left":[0,0,0,0,0,0,0,0,0,0,0,0,0,0,0,0,0,0,0,0,0,0,0,0,0,0,0,0,0,0,0,0,0,0,0],"id":2,"left_children":[1,3,5,7,9,11,13,15,17,-1,-1,-1,-1,-1,-1,19,21,23,-1,25,27,29,31,33,-1,-1,-1,-1,-1,-1,-1,-1,-1,-1,-1],"loss_changes":[9.672893E8,5.084848E7,2.2093248E8,3.9783015E6,5.7991E6,1.592608E6,1.5759872E7,5.59176E5,7.0093125E5,0E0,0E0,0E0,0E0,0E0,0E0,9.36175E4,6.4100047E4,5.2797E4,0E0,1.6233E4,1.1130115E4,9.196547E3,3.12225E3,2.3250625E3,0E0,0E0,0E0,0E0,0E0,0E0,0E0,0E0,0E0,0E0,0E0],"parents":[2147483647,0,0,1,1,2,2,3,3,4,4,5,5,6,6,7,7,8,8,15,15,16,16,17,17,19,19,20,20,21,21,22,22,23,23],"right_children":[2,4,6,8,10,12,14,16,18,-1,-1,-1,-1,-1,-1,20,22,24,-1,26,28,30,32,34,-1,-1,-1,-1,-1,-1,-1,-1,-1,-1,-1],"split_conditions":[1.812E3,4.65E2,4.032E3,1.05E2,8.71E2,2.503E3,6.7707E4,2.7E1,2.43E2,1.7225576E1,3.7537086E1,5.713641E1,8.190785E1,1.2092698E2,2.2946191E2,8E0,6E1,1.61E2,9.120971E0,3E0,1.6E1,4.2E1,8.1E1,1.28E2,4.801649E0,-5.914801E-1,-4.6749938E-1,-2.937164E-1,-1.893207E-2,3.399759E-1,7.8962576E-1,1.3574394E0,1.8925048E0,2.5523663E0,3.4044418E0],"split_indices":[1,1,1,1,1,1,0,1,1,0,0,0,0,0,0,1,1,1,0,1,1,1,1,1,0,0,0,0,0,0,0,0,0,0,0],"split_type":[0,0,0,0,0,0,0,0,0,0,0,0,0,0,0,0,0,0,0,0,0,0,0,0,0,0,0,0,0,0,0,0,0,0,0],"sum_hessian":[1.8496E4,1.8421E4,7.5E1,1.8365E4,5.6E1,5.8E1,1.7E1,1.8251E4,1.14E2,2.8E1,2.8E1,1.5E1,4.3E1,6E0,1.1E1,1.8004E4,2.47E2,8.6E1,2.8E1,1.743E4,5.74E2,1.71E2,7.6E1,5.9E1,2.7E1,1.6397E4,1.033E3,3.66E2,2.08E2,9.8E1,7.3E1,4.7E1,2.9E1,3E1,2.9E1],"tree_param":{"num_deleted":"0","num_feature":"8","num_nodes":"35","size_leaf_vector":"1"}},{"base_weights":[1.8444556E-1,-1.3806539E1,3.3505684E3,-1.6640766E1,8.846861E2,2.4844211E3,6.2614165E3,-1.784492E1,1.6373384E2,1.7107695E1,1.1591451E3,5.570583E1,7.9460815E1,2.1620305E2,1.1644125E2,-1.8488472E1,2.821945E1,1.1919594E2,2.8527182E2,2.743726E1,4.02823E1,-1.888941E1,-6.276559E0,1.7171137E1,5.1331676E1,9.739314E1,4.6905394E0,6.7778296E0,9.9148655E0,-5.737609E-1,-4.532518E-1,-2.8644693E-1,-1.6805757E-2,3.306253E-1,7.668043E-1,1.1925106E0,1.7315127E0,2.4879434E0,3.2727137E0],"categories":[],"categories_nodes":[],"categories_segments":[],"categories_sizes":[],"default_left":[0,0,0,0,0,0,0,0,0,0,0,0,0,0,0,0,0,0,0,0,0,0,0,0,0,0,0,0,0,0,0,0,0,0,0,0,0,0,0],"id":3,"left_children":[1,3,5,7,9,11,13,15,17,-1,19,-1,-1,-1,-1,21,23,25,27,-1,-1,29,31,33,35,37,-1,-1,-1,-1,-1,-1,-1,-1,-1,-1,-1,-1,-1],"loss_changes":[8.6794003E8,4.6970228E7,1.7857811E8,3.995471E6,4.34428E6,1.370272E6,1.027744E7,5.41866E5,6.2638825E5,0E0,1.19036E5,0E0,0E0,0E0,0E0,8.80625E4,6.3467062E4,5.849075E4,1.12125E4,0E0,0E0,1.5267E4,1.0729645E4,8.592621E3,3.6958125E3,1.1028125E3,0E0,0E0,0E0,0E0,0E0,0E0,0E0,0E0,0E0,0E0,0E0,0E0,0E0],"parents":[2147483647,0,0,1,1,2,2,3,3,4,4,5,5,6,6,7,7,8,8,10,10,15,15,16,16,17,17,18,18,21,21,22,22,23,23,24,24,25,25],"right_children":[2,4,6,8,10,12,14,16,18,-1,20,-1,-1,-1,-1,22,24,26,28,-1,-1,30,32,34,36,38,-1,-1,-1,-1,-1,-1,-1,-1,-1,-1,-1,-1,-1],"split_conditions":[1.812E3,4.65E2,4.032E3,1.05E2,8.71E2,2.503E3,1E-1,2.7E1,2.43E2,1.7107695E1,1.331E3,5.570583E1,7.9460815E1,2.1620305E2,1.1644125E2,8E0,6E1,1.61E2,3.5E2,2.743726E1,4.02823E1,3E0,1.6E1,4.2E1,7.5E1,1.28E2,4.6905394E0,6.7778296E0,9.9148655E0,-5.737609E-1,-4.532518E-1,-2.8644693E-1,-1.6805757E-2,3.306253E-1,7.668043E-1,1.1925106E0,1.7315127E0,2.4879434E0,3.2727137E0],"split_indices":[1,1,1,1,1,1,4,1,1,0,1,0,0,0,0,1,1,1,1,0,0,1,1,1,1,1,0,0,0,0,0,0,0,0,0,0,0,0,0],"split_type":[0,0,0,0,0,0,0,0,0,0,0,0,0,0,0,0,0,0,0,0,0,0,0,0,0,0,0,0,0,0,0,0,0,0,0,0,0,0,0],"sum_hessian":[1.8514E4,1.8438E4,7.6E1,1.8381E4,5.7E1,6E1,1.6E1,1.826E4,1.21E2,2.8E1,2.9E1,1.5E1,4.5E1,1E1,6E0,1.8009E4,2.51E2,9E1,3.1E1,1.5E1,1.4E1,1.7436E4,5.73E2,1.71E2,8E1,5.9E1,3.1E1,1.6E1,1.5E1,1.6408E4,1.028E3,3.64E2,2.09E2,1E2,7.1E1,3.1E1,4.9E1,3E1,2.9E1],"tree_param":{"num_deleted":"0","num_feature":"8","num_nodes":"39","size_leaf_vector":"1"}},{"base_weights":[-1.7922838E-1,-1.4442485E1,2.7279678E3,-1.6563688E1,5.564669E2,1.9696133E3,3.9371802E3,-1.7497192E1,8.868898E1,3.3256516E2,7.4625275E2,2.2881858E3,8.401118E2,7.954337E1,6.2876953E3,-1.7917702E1,7.1440687E0,6.419209E1,1.2885555E2,1.2311063E1,1.12579956E2,5.6084204E2,9.005055E2,2.5427603E1,2.4783323E3,5.228834E2,1.369992E3,2.2020354E2,2.0511581E1,-1.8301838E1,-9.335991E0,4.4445154E-1,2.1080196E1,3.9350307E1,7.6581825E1,5.096581E1,1.7589603E2,8.636413E-2,1.24449104E2,7.238065E2,3.4179333E2,1.0574022E3,5.02896E2,6.1225445E1,9.301743E1,1.804681E1,2.3480878E2,4.8941833E1,4.865718E0,-5.568956E-1,-4.631327E-1,-1.0971003E-1,-3.830716E-1,-1.8939602E-1,1.3239342E-1,2.2675607E-1,7.021439E-1,1.2648491E0,-1.6884571E-1,5.0529855E-1,2.4032216E0,8.462047E-1,1.9562235E0,6.1661954E0,3.3754218E0,3.0567428E-1,4.123739E0,2.7128855E1,6.8099947E0,9.935589E-1,1.117232E1,1.06269655E1,3.487839E1,4.0637913E0,1.8683357E1,1.363401E0,8.4834175E0],"categories":[],"categories_nodes":[],"categories_segments":[],"categories_sizes":[],"default_left":[0,0,0,0,0,0,0,0,0,0,0,0,0,0,0,0,0,0,0,0,0,0,0,0,0,0,0,0,0,0,0,0,0,0,0,0,0,0,0,0,0,0,0,0,0,0,0,0,0,0,0,0,0,0,0,0,0,0,0,0,0,0,0,0,0,0,0,0,0,0,0,0,0,0,0,0,0],"id":4,"left_children":[1,3,5,7,9,11,13,15,17,19,21,23,25,-1,27,29,31,33,35,-1,37,39,41,-1,43,45,47,-1,-1,49,51,53,55,57,59,61,63,-1,65,67,69,71,73,-1,-1,-1,75,-1,-1,-1,-1,-1,-1,-1,-1,-1,-1,-1,-1,-1,-1,-1,-1,-1,-1,-1,-1,-1,-1,-1,-1,-1,-1,-1,-1,-1,-1],"loss_changes":[7.1824294E8,2.224586E7,8.027846E7,1.799107E6,2.641372E6,2.0027168E7,9.21255E7,1.8804E5,1.5014538E5,5.1861675E5,5.24564E5,1.0773872E7,1.80505E6,0E0,6.5754464E7,5.861E4,2.8467484E4,2.8380375E4,2.1087369E5,0E0,1.2662336E4,4.30854E5,5.91143E5,0E0,4.83336E6,1.080615E5,1.314015E6,0E0,0E0,1.2488E4,1.4887492E4,5.579361E3,2.9349023E3,4.7894766E3,1.276175E4,5.939711E3,4.63925E4,0E0,1.19769375E4,6.914045E5,8.217425E4,4.75937E5,2.23983E5,0E0,0E0,0E0,2.3484719E4,0E0,0E0,0E0,0E0,0E0,0E0,0E0,0E0,0E0,0E0,0E0,0E0,0E0,0E0,0E0,0E0,0E0,0E0,0E0,0E0,0E0,0E0,0E0,0E0,0E0,0E0,0E0,0E0,0E0,0E0],"parents":[2147483647,0,0,1,1,2,2,3,3,4,4,5,5,6,6,7,7,8,8,9,9,10,10,11,11,12,12,14,14,15,15,16,16,17,17,18,18,20,20,21,21,22,22,24,24,25,25,26,26,29,29,30,30,31,31,32,32,33,33,34,34,35,35,36,36,38,38,39,39,40,40,41,41,42,42,46,46],"right_children":[2,4,6,8,10,12,14,16,18,20,22,24,26,-1,28,30,32,34,36,-1,38,40,42,-1,44,46,48,-1,-1,50,52,54,56,58,60,62,64,-1,66,68,70,72,74,-1,-1,-1,76,-1,-1,-1,-1,-1,-1,-1,-1,-1,-1,-1,-1,-1,-1,-1,-1,-1,-1,-1,-1,-1,-1,-1,-1,-1,-1,-1,-1,-1,-1],"split_conditions":[1.8302143E4,9.661E3,6.7707E4,2.998E3,9.765286E3,2E-1,1.9011407E-3,1.272E3,3.8204285E3,2.34375E-1,1.2751678E-1,8E0,1.8130842E-1,7.954337E1,1.4878543E-1,4.411765E-2,1.953E3,3.7E3,8.410351E-2,1.2311063E1,1.770905E-1,7.978723E-2,2E-1,2.5427603E1,8.3333336E-2,1.6049382E-1,3.3333334E-1,2.2020354E2,2.0511581E1,1.3571428E2,3.3333334E-1,5.263158E-2,4.411765E-2,1E0,6.887755E-2,1.2E1,2.961165E-1,8.636413E-2,2.45204E-1,1.3E1,1.2195122E-1,7E0,2.34375E-1,6.1225445E1,9.301743E1,1.804681E1,1E0,4.8941833E1,4.865718E0,-5.568956E-1,-4.631327E-1,-1.0971003E-1,-3.830716E-1,-1.8939602E-1,1.3239342E-1,2.2675607E-1,7.021439E-1,1.2648491E0,-1.6884571E-1,5.0529855E-1,2.4032216E0,8.462047E-1,1.9562235E0,6.1661954E0,3.3754218E0,3.0567428E-1,4.123739E0,2.7128855E1,6.8099947E0,9.935589E-1,1.117232E1,1.06269655E1,3.487839E1,4.0637913E0,1.8683357E1,1.363401E0,8.4834175E0],"split_indices":[2,0,0,0,2,5,4,0,2,4,4,7,4,0,5,5,0,0,4,0,5,4,4,0,5,4,5,0,0,2,5,4,5,5,4,7,5,0,4,7,5,7,4,0,0,0,6,0,0,0,0,0,0,0,0,0,0,0,0,0,0,0,0,0,0,0,0,0,0,0,0,0,0,0,0,0,0],"split_type":[0,0,0,0,0,0,0,0,0,0,0,0,0,0,0,0,0,0,0,0,0,0,0,0,0,0,0,0,0,0,0,0,0,0,0,0,0,0,0,0,0,0,0,0,0,0,0,0,0,0,0,0,0,0,0,0,0,0,0,0,0,0,0,0,0,0,0,0,0,0,0,0,0,0,0,0,0],"sum_hessian":[1.8456E4,1.8361E4,9.5E1,1.8294E4,6.7E1,6E1,3.5E1,1.8134E4,1.6E2,3.2E1,3.5E1,4.6E1,1.4E1,2.4E1,1.1E1,1.783E4,3.04E2,1.01E2,5.9E1,2.3E1,9E0,1.8E1,1.7E1,6E0,4E1,1E1,4E0,9E0,2E0,1.7065E4,7.65E2,2.06E2,9.8E1,3.5E1,6.6E1,2.3E1,3.6E1,1E0,8E0,9E0,9E0,1.1E1,6E0,2.6E1,1.4E1,7E0,3E0,3E0,1E0,1.5633E4,1.432E3,2.89E2,4.76E2,7.6E1,1.3E2,1.5E1,8.3E1,3.3E1,2E0,4E0,6.2E1,1E1,1.3E1,2.3E1,1.3E1,1E0,7E0,6E0,3E0,1E0,8E0,2E0,9E0,2E0,4E0,1E0,2E0],"tree_param":{"num_deleted":"0","num_feature":"8","num_nodes":"77","size_leaf_vector":"1"}},{"base_weights":[-2.1011487E-1,-1.3200355E1,3.3778042E3,-1.5781668E1,8.510284E2,2.3416675E3,6.2985586E3,-1.6818502E1,1.5685352E2,1.6267134E1,1.1294252E3,5.102503E1,7.4528E1,2.1221867E2,1.07063126E2,-1.7406067E1,2.6552479E1,1.13180214E2,2.69543E2,2.5171597E1,3.88429E1,-1.780904E1,-6.8572783E0,1.5037183E1,4.6217297E1,9.194814E1,4.442426E0,6.2864313E0,9.467053E0,-5.4155445E-1,-4.5364523E-1,-2.968042E-1,-2.825798E-2,2.7819583E-1,6.439119E-1,1.0718046E0,1.6279777E0,2.1062899E0,2.960445E0],"categories":[],"categories_nodes":[],"categories_segments":[],"categories_sizes":[],"default_left":[0,0,0,0,0,0,0,0,0,0,0,0,0,0,0,0,0,0,0,0,0,0,0,0,0,0,0,0,0,0,0,0,0,0,0,0,0,0,0],"id":5,"left_children":[1,3,5,7,9,11,13,15,17,-1,19,-1,-1,-1,-1,21,23,25,27,-1,-1,29,31,33,35,37,-1,-1,-1,-1,-1,-1,-1,-1,-1,-1,-1,-1,-1],"loss_changes":[8.1329517E8,4.120151E7,2.001182E8,3.297744E6,4.115732E6,7.09312E5,1.285472E7,4.66806E5,5.108605E5,0E0,2.57892E5,0E0,0E0,0E0,0E0,7.66315E4,5.4784344E4,4.6406375E4,1.671275E4,0E0,0E0,1.1074E4,1.1952137E4,5.5796016E3,5.6603125E3,8.29375E2,0E0,0E0,0E0,0E0,0E0,0E0,0E0,0E0,0E0,0E0,0E0,0E0,0E0],"parents":[2147483647,0,0,1,1,2,2,3,3,4,4,5,5,6,6,7,7,8,8,10,10,15,15,16,16,17,17,18,18,21,21,22,22,23,23,24,24,25,25],"right_children":[2,4,6,8,10,12,14,16,18,-1,20,-1,-1,-1,-1,22,24,26,28,-1,-1,30,32,34,36,38,-1,-1,-1,-1,-1,-1,-1,-1,-1,-1,-1,-1,-1],"split_conditions":[1.812E3,4.65E2,4.032E3,1.05E2,8.71E2,2.503E3,1E-1,2.7E1,2.43E2,1.6267134E1,1.331E3,5.102503E1,7.4528E1,2.1221867E2,1.07063126E2,7E0,5.5E1,1.61E2,3.5E2,2.5171597E1,3.88429E1,2E0,1.5E1,3.9E1,7.5E1,1.14E2,4.442426E0,6.2864313E0,9.467053E0,-5.4155445E-1,-4.5364523E-1,-2.968042E-1,-2.825798E-2,2.7819583E-1,6.439119E-1,1.0718046E0,1.6279777E0,2.1062899E0,2.960445E0],"split_indices":[1,1,1,1,1,1,4,1,1,0,1,0,0,0,0,1,1,1,1,0,0,1,1,1,1,1,0,0,0,0,0,0,0,0,0,0,0,0,0],"split_type":[0,0,0,0,0,0,0,0,0,0,0,0,0,0,0,0,0,0,0,0,0,0,0,0,0,0,0,0,0,0,0,0,0,0,0,0,0,0,0],"sum_hessian":[1.8532E4,1.8462E4,7E1,1.8408E4,5.4E1,5.3E1,1.7E1,1.8299E4,1.09E2,2.7E1,2.7E1,1.2E1,4.1E1,1.2E1,5E0,1.8055E4,2.44E2,8E1,2.9E1,1.2E1,1.5E1,1.739E4,6.65E2,1.55E2,8.9E1,5.2E1,2.8E1,1.5E1,1.4E1,1.5944E4,1.446E3,4.39E2,2.26E2,8.3E1,7.2E1,4.1E1,4.8E1,1.5E1,3.7E1],"tree_param":{"num_deleted":"0","num_feature":"8","num_nodes":"39","size_leaf_vector":"1"}},{"base_weights":[1.0577531E0,-1.3754041E1,2.6504893E3,-1.5590547E1,4.822238E2,1.8444657E3,3.980675E3,-1.6467567E1,8.061631E1,3.0073373E2,6.891399E2,2.121006E3,8.4771405E2,7.4924385E1,6.0884097E3,-1.6877316E1,7.0682907E0,5.5797504E1,1.2242249E2,3.4019476E2,1.10230446E2,5.039918E2,8.3121674E2,1.2482228E3,2.449993E3,5.8544574E2,1.3076154E3,2.0624104E2,1.955025E1,-1.722692E1,-8.801519E0,3.3214098E-1,2.0156164E1,4.6779285E1,7.519029E1,5.281932E1,1.7614209E2,1.3024874E1,2.9469742E2,8.089571E-2,3.7562165E0,6.0867523E2,1.5195312E2,1.0089082E1,8.778971E2,1.9159164E1,4.401745E1,6.0275337E1,8.997568E1,6.405153E2,6.2019553E0,4.6710213E1,4.6507263E0,-5.2396375E-1,-4.3740988E-1,-1.02113836E-1,-3.6154294E-1,-1.6743532E-1,1.163273E-1,2.0866849E-1,6.7798394E-1,1.4963666E0,8.447916E-1,1.1013569E-1,2.5582857E0,3.8532892E-1,1.7130766E0,5.5473742E0,7.1631694E-1,2.1611192E0,9.692269E0,2.1936646E1,8.725983E0,5.377737E0,6.4100987E-1,3.0567436E1,1.5601641E1,9.478696E0,2.2034258E1],"categories":[],"categories_nodes":[],"categories_segments":[],"categories_sizes":[],"default_left":[0,0,0,0,0,0,0,0,0,0,0,0,0,0,0,0,0,0,0,0,0,0,0,0,0,0,0,0,0,0,0,0,0,0,0,0,0,0,0,0,0,0,0,0,0,0,0,0,0,0,0,0,0,0,0,0,0,0,0,0,0,0,0,0,0,0,0,0,0,0,0,0,0,0,0,0,0,0,0],"id":6,"left_children":[1,3,5,7,9,11,13,15,17,19,21,23,25,-1,27,29,31,33,35,37,39,41,43,45,47,49,51,-1,-1,53,55,57,59,61,63,65,67,-1,69,-1,-1,71,73,-1,75,-1,-1,-1,-1,77,-1,-1,-1,-1,-1,-1,-1,-1,-1,-1,-1,-1,-1,-1,-1,-1,-1,-1,-1,-1,-1,-1,-1,-1,-1,-1,-1,-1,-1],"loss_changes":[7.2704915E8,1.6789316E7,1.0309037E8,1.550206E6,2.34637E6,1.6394368E7,1.0358925E8,1.75559E5,1.6540738E5,2.481635E5,3.96537E5,1.1585712E7,1.164342E6,0E0,5.964288E7,5.0332E4,2.7499814E4,1.50208125E4,2.187785E5,4.58725E3,1.2546461E4,4.97152E5,7.4405E4,1.19919E6,2.689456E6,1.1785275E5,1.195859E6,0E0,0E0,1.05655E4,1.3010332E4,4.3614565E3,3.2616133E3,2.9239219E3,2.276964E4,4.0607812E3,4.098925E4,0E0,1.28375375E5,0E0,0E0,2.54669E5,1.3997922E4,0E0,1.76577E5,0E0,0E0,0E0,0E0,7.289325E4,0E0,0E0,0E0,0E0,0E0,0E0,0E0,0E0,0E0,0E0,0E0,0E0,0E0,0E0,0E0,0E0,0E0,0E0,0E0,0E0,0E0,0E0,0E0,0E0,0E0,0E0,0E0,0E0,0E0],"parents":[2147483647,0,0,1,1,2,2,3,3,4,4,5,5,6,6,7,7,8,8,9,9,10,10,11,11,12,12,14,14,15,15,16,16,17,17,18,18,19,19,20,20,21,21,22,22,23,23,24,24,25,25,26,26,29,29,30,30,31,31,32,32,33,33,34,34,35,35,36,36,38,38,41,41,42,42,44,44,49,49],"right_children":[2,4,6,8,10,12,14,16,18,20,22,24,26,-1,28,30,32,34,36,38,40,42,44,46,48,50,52,-1,-1,54,56,58,60,62,64,66,68,-1,70,-1,-1,72,74,-1,76,-1,-1,-1,-1,78,-1,-1,-1,-1,-1,-1,-1,-1,-1,-1,-1,-1,-1,-1,-1,-1,-1,-1,-1,-1,-1,-1,-1,-1,-1,-1,-1,-1,-1],"split_conditions":[1.8302143E4,9.661E3,6.7707E4,2.998E3,9.765286E3,2E-1,1.9011407E-3,1.272E3,3.8204285E3,2.5E-1,1.2751678E-1,9E0,1.875E-1,7.4924385E1,1.770905E-1,4.411765E-2,1.953E3,2.9794285E3,1.1111111E-1,1.2E1,1.770905E-1,2E-1,7E0,4.9515E4,8.3333336E-2,1.7340288E-1,3.3333334E-1,2.0624104E2,1.955025E1,1.3571428E2,3.3333334E-1,2.6666667E-2,4.411765E-2,5E-1,7.438017E-2,1.1E1,2.7272728E-1,1.3024874E1,4.411765E-2,8.089571E-2,3.7562165E0,6E0,5E0,1.0089082E1,2E-1,1.9159164E1,4.401745E1,6.0275337E1,8.997568E1,3E0,6.2019553E0,4.6710213E1,4.6507263E0,-5.2396375E-1,-4.3740988E-1,-1.02113836E-1,-3.6154294E-1,-1.6743532E-1,1.163273E-1,2.0866849E-1,6.7798394E-1,1.4963666E0,8.447916E-1,1.1013569E-1,2.5582857E0,3.8532892E-1,1.7130766E0,5.5473742E0,7.1631694E-1,2.1611192E0,9.692269E0,2.1936646E1,8.725983E0,5.377737E0,6.4100987E-1,3.0567436E1,1.5601641E1,9.478696E0,2.2034258E1],"split_indices":[2,0,0,0,2,5,4,0,2,4,4,7,4,0,5,5,0,2,4,7,5,5,7,0,5,4,5,0,0,2,5,4,5,5,4,7,4,0,5,0,0,6,6,0,4,0,0,0,0,6,0,0,0,0,0,0,0,0,0,0,0,0,0,0,0,0,0,0,0,0,0,0,0,0,0,0,0,0,0],"split_type":[0,0,0,0,0,0,0,0,0,0,0,0,0,0,0,0,0,0,0,0,0,0,0,0,0,0,0,0,0,0,0,0,0,0,0,0,0,0,0,0,0,0,0,0,0,0,0,0,0,0,0,0,0,0,0,0,0,0,0,0,0,0,0,0,0,0,0,0,0,0,0,0,0,0,0,0,0,0,0],"sum_hessian":[1.8525E4,1.8423E4,1.02E2,1.8356E4,6.7E1,6.5E1,3.7E1,1.8191E4,1.65E2,3.7E1,3E1,5E1,1.5E1,2.3E1,1.4E1,1.788E4,3.11E2,1.05E2,6E1,3E1,7E0,1.5E1,1.5E1,1.5E1,3.5E1,1.1E1,4E0,1.2E1,2E0,1.7137E4,7.43E2,2.06E2,1.05E2,7.4E1,3.1E1,2.7E1,3.3E1,7E0,2.3E1,1E0,6E0,1.1E1,4E0,2E0,1.3E1,5E0,1E1,2.2E1,1.3E1,9E0,2E0,3E0,1E0,1.5715E4,1.422E3,2.8E2,4.63E2,7.7E1,1.29E2,1.7E1,8.8E1,6.2E1,1.2E1,4E0,2.7E1,3E0,2.4E1,3.1E1,2E0,3E0,2E1,7E0,4E0,3E0,1E0,8E0,5E0,3E0,6E0],"tree_param":{"num_deleted":"0","num_feature":"8","num_nodes":"79","size_leaf_vector":"1"}},{"base_weights":[5.6007254E-1,-1.2405888E1,3.1519634E3,-1.4809296E1,7.643236E2,2.2035544E3,5.881214E3,-1.5839406E1,1.4506181E2,5.957994E2,3.71813E1,4.77163E1,7.0873634E1,2.0089888E2,1.0580093E2,-1.6420044E1,2.2136173E1,1.0486499E2,2.59477E2,1.20600815E1,2.0765493E1,-1.6830486E1,-8.508796E0,1.2354879E1,4.2892178E1,8.531345E1,4.160797E0,5.9217663E0,8.860268E0,-5.0969625E-1,-4.4116795E-1,-3.2632205E-1,-8.974519E-2,1.9552843E-1,5.6521124E-1,9.952021E-1,1.5432545E0,2.2100968E0,2.867204E0],"categories":[],"categories_nodes":[],"categories_segments":[],"categories_sizes":[],"default_left":[0,0,0,0,0,0,0,0,0,0,0,0,0,0,0,0,0,0,0,0,0,0,0,0,0,0,0,0,0,0,0,0,0,0,0,0,0,0,0],"id":7,"left_children":[1,3,5,7,9,11,13,15,17,19,-1,-1,-1,-1,-1,21,23,25,27,-1,-1,29,31,33,35,37,-1,-1,-1,-1,-1,-1,-1,-1,-1,-1,-1,-1,-1],"loss_changes":[7.578874E8,3.4494824E7,1.8376237E8,3.0351335E6,3.824882E6,1.892032E6,1.2861312E7,4.038575E5,5.1548675E5,5.4361E5,0E0,0E0,0E0,0E0,0E0,5.83825E4,5.5503734E4,4.703175E4,8.50225E3,0E0,0E0,5.5535E3,1.1611305E4,7.032283E3,5.6056094E3,7.40625E0,0E0,0E0,0E0,0E0,0E0,0E0,0E0,0E0,0E0,0E0,0E0,0E0,0E0],"parents":[2147483647,0,0,1,1,2,2,3,3,4,4,5,5,6,6,7,7,8,8,9,9,15,15,16,16,17,17,18,18,21,21,22,22,23,23,24,24,25,25],"right_children":[2,4,6,8,10,12,14,16,18,20,-1,-1,-1,-1,-1,22,24,26,28,-1,-1,30,32,34,36,38,-1,-1,-1,-1,-1,-1,-1,-1,-1,-1,-1,-1,-1],"split_conditions":[1.812E3,4.65E2,4.032E3,1.05E2,1.331E3,2.503E3,1E-1,2.4E1,2.43E2,6.45E2,3.71813E1,4.77163E1,7.0873634E1,2.0089888E2,1.0580093E2,6E0,5.5E1,1.61E2,3.5E2,1.20600815E1,2.0765493E1,2E0,1.3E1,3.6E1,7.5E1,1.28E2,4.160797E0,5.9217663E0,8.860268E0,-5.0969625E-1,-4.4116795E-1,-3.2632205E-1,-8.974519E-2,1.9552843E-1,5.6521124E-1,9.952021E-1,1.5432545E0,2.2100968E0,2.867204E0],"split_indices":[1,1,1,1,1,1,4,1,1,1,0,0,0,0,0,1,1,1,1,0,0,1,1,1,1,1,0,0,0,0,0,0,0,0,0,0,0,0,0],"split_type":[0,0,0,0,0,0,0,0,0,0,0,0,0,0,0,0,0,0,0,0,0,0,0,0,0,0,0,0,0,0,0,0,0,0,0,0,0,0,0],"sum_hessian":[1.8546E4,1.8471E4,7.5E1,1.8415E4,5.6E1,5.7E1,1.8E1,1.8298E4,1.17E2,4.3E1,1.3E1,1.4E1,4.3E1,1.2E1,6E0,1.8023E4,2.75E2,8.8E1,2.9E1,1.6E1,2.7E1,1.7133E4,8.9E2,1.88E2,8.7E1,5.8E1,3E1,1.3E1,1.6E1,1.5931E4,1.202E3,6.22E2,2.68E2,1E2,8.8E1,4.3E1,4.4E1,3.1E1,2.7E1],"tree_param":{"num_deleted":"0","num_feature":"8","num_nodes":"39","size_leaf_vector":"1"}},{"base_weights":[9.5371395E-1,-1.1781167E1,3.0581396E3,-1.4400201E1,7.7948914E2,2.1488015E3,5.7209194E3,-1.5366919E1,1.4101152E2,1.4745815E1,1.0250944E3,4.5970917E1,6.8690994E1,1.9533553E2,1.0308033E2,-1.591976E1,2.2056068E1,1.00925896E2,2.4988707E2,2.413066E1,3.5866837E1,-1.6324097E1,-8.060849E0,1.1386364E1,3.947968E1,8.423037E1,4.0101213E0,5.7913775E0,8.626731E0,-4.9442664E-1,-4.2807025E-1,-3.1559816E-1,-8.2130454E-2,2.0192367E-1,5.1438993E-1,9.178671E-1,1.483106E0,2.1569507E0,2.8126411E0],"categories":[],"categories_nodes":[],"categories_segments":[],"categories_sizes":[],"default_left":[0,0,0,0,0,0,0,0,0,0,0,0,0,0,0,0,0,0,0,0,0,0,0,0,0,0,0,0,0,0,0,0,0,0,0,0,0,0,0],"id":8,"left_children":[1,3,5,7,9,11,13,15,17,-1,19,-1,-1,-1,-1,21,23,25,27,-1,-1,29,31,33,35,37,-1,-1,-1,-1,-1,-1,-1,-1,-1,-1,-1,-1,-1],"loss_changes":[7.226695E8,3.831887E7,1.7415213E8,2.770326E6,3.81036E6,1.615808E6,1.1935488E7,3.792075E5,4.7231525E5,0E0,2.42464E5,0E0,0E0,0E0,0E0,5.7212E4,4.9187055E4,3.5209562E4,8.72525E3,0E0,0E0,5.295E3,1.1555988E4,4.3628555E3,7.4219688E3,1.89E2,0E0,0E0,0E0,0E0,0E0,0E0,0E0,0E0,0E0,0E0,0E0,0E0,0E0],"parents":[2147483647,0,0,1,1,2,2,3,3,4,4,5,5,6,6,7,7,8,8,10,10,15,15,16,16,17,17,18,18,21,21,22,22,23,23,24,24,25,25],"right_children":[2,4,6,8,10,12,14,16,18,-1,20,-1,-1,-1,-1,22,24,26,28,-1,-1,30,32,34,36,38,-1,-1,-1,-1,-1,-1,-1,-1,-1,-1,-1,-1,-1],"split_conditions":[1.812E3,4.65E2,4.032E3,1.05E2,8.71E2,2.503E3,1E-1,2.5E1,2.43E2,1.4745815E1,1.331E3,4.5970917E1,6.8690994E1,1.9533553E2,1.0308033E2,6E0,5.2E1,1.61E2,3.5E2,2.413066E1,3.5866837E1,2E0,1.3E1,3.6E1,7.5E1,1.28E2,4.0101213E0,5.7913775E0,8.626731E0,-4.9442664E-1,-4.2807025E-1,-3.1559816E-1,-8.2130454E-2,2.0192367E-1,5.1438993E-1,9.178671E-1,1.483106E0,2.1569507E0,2.8126411E0],"split_indices":[1,1,1,1,1,1,4,1,1,0,1,0,0,0,0,1,1,1,1,0,0,1,1,1,1,1,0,0,0,0,0,0,0,0,0,0,0,0,0],"split_type":[0,0,0,0,0,0,0,0,0,0,0,0,0,0,0,0,0,0,0,0,0,0,0,0,0,0,0,0,0,0,0,0,0,0,0,0,0,0,0],"sum_hessian":[1.856E4,1.8484E4,7.6E1,1.8424E4,6E1,5.8E1,1.8E1,1.8311E4,1.13E2,2.9E1,3.1E1,1.3E1,4.5E1,1.2E1,6E0,1.8045E4,2.66E2,8.4E1,2.9E1,1.6E1,1.5E1,1.7161E4,8.84E2,1.66E2,1E2,5.8E1,2.6E1,1.4E1,1.5E1,1.5938E4,1.223E3,6.04E2,2.8E2,9.3E1,7.3E1,5.5E1,4.5E1,2.9E1,2.9E1],"tree_param":{"num_deleted":"0","num_feature":"8","num_nodes":"39","size_leaf_vector":"1"}},{"base_weights":[3.4041706E-1,-1.1545663E1,2.9578816E3,-1.3927566E1,7.424847E2,2.06571E3,5.6187646E3,-1.4955697E1,1.2705436E2,4.81327E2,9.7018756E2,4.555501E1,6.625672E1,1.8992622E2,9.418199E1,-1.5527413E1,1.386552E1,9.186882E1,7.343872E0,1.1206092E1,1.6710873E1,2.3449322E1,3.3895023E1,-1.58635025E1,-9.353483E0,6.266844E0,3.3179474E1,7.099933E1,3.594697E0,-4.8153144E-1,-4.3685734E-1,-3.267113E-1,-1.5272132E-1,7.168202E-2,4.017607E-1,7.9576343E-1,1.2521042E0,1.8183087E0,2.3829956E0],"categories":[],"categories_nodes":[],"categories_segments":[],"categories_sizes":[],"default_left":[0,0,0,0,0,0,0,0,0,0,0,0,0,0,0,0,0,0,0,0,0,0,0,0,0,0,0,0,0,0,0,0,0,0,0,0,0,0,0],"id":9,"left_children":[1,3,5,7,9,11,13,15,17,19,21,-1,-1,-1,-1,23,25,27,-1,-1,-1,-1,-1,29,31,33,35,37,-1,-1,-1,-1,-1,-1,-1,-1,-1,-1,-1],"loss_changes":[6.498831E8,3.3080588E7,1.640665E8,2.6625648E6,2.98207E6,1.101872E6,1.190528E7,3.00502E5,5.285025E5,2.8569E4,1.988E4,0E0,0E0,0E0,0E0,3.6932E4,5.189204E4,5.2165688E4,0E0,0E0,0E0,0E0,0E0,3.903E3,6.004633E3,7.040633E3,4.5869766E3,6.179375E2,0E0,0E0,0E0,0E0,0E0,0E0,0E0,0E0,0E0,0E0,0E0],"parents":[2147483647,0,0,1,1,2,2,3,3,4,4,5,5,6,6,7,7,8,8,9,9,10,10,15,15,16,16,17,17,23,23,24,24,25,25,26,26,27,27],"right_children":[2,4,6,8,10,12,14,16,18,20,22,-1,-1,-1,-1,24,26,28,-1,-1,-1,-1,-1,30,32,34,36,38,-1,-1,-1,-1,-1,-1,-1,-1,-1,-1,-1],"split_conditions":[1.812E3,4.65E2,4.032E3,9.1E1,8.71E2,2.503E3,1E-1,2E1,2.43E2,6.45E2,1.331E3,4.555501E1,6.625672E1,1.8992622E2,9.418199E1,5E0,4.8E1,1.46E2,7.343872E0,1.1206092E1,1.6710873E1,2.3449322E1,3.3895023E1,1E0,1.1E1,3.2E1,6.7E1,1.14E2,3.594697E0,-4.8153144E-1,-4.3685734E-1,-3.267113E-1,-1.5272132E-1,7.168202E-2,4.017607E-1,7.9576343E-1,1.2521042E0,1.8183087E0,2.3829956E0],"split_indices":[1,1,1,1,1,1,4,1,1,1,1,0,0,0,0,1,1,1,0,0,0,0,0,1,1,1,1,1,0,0,0,0,0,0,0,0,0,0,0],"split_type":[0,0,0,0,0,0,0,0,0,0,0,0,0,0,0,0,0,0,0,0,0,0,0,0,0,0,0,0,0,0,0,0,0,0,0,0,0,0,0],"sum_hessian":[1.8485E4,1.8412E4,7.3E1,1.8355E4,5.7E1,5.6E1,1.7E1,1.8223E4,1.32E2,2.8E1,2.9E1,1.4E1,4.2E1,1.2E1,5E0,1.7869E4,3.54E2,1.03E2,2.9E1,1.4E1,1.4E1,1.6E1,1.3E1,1.6945E4,9.24E2,2.55E2,9.9E1,6.1E1,4.2E1,1.4801E4,2.144E3,6.78E2,2.46E2,1.66E2,8.9E1,5.8E1,4.1E1,3.1E1,3E1],"tree_param":{"num_deleted":"0","num_feature":"8","num_nodes":"39","size_leaf_vector":"1"}},{"base_weights":[7.6512396E-1,-1.1052987E1,2.8283533E3,-1.3487252E1,7.468509E2,2.081691E3,5.160097E3,-1.4469908E1,1.2339995E2,4.679282E2,9.675692E2,4.5799213E1,6.698347E1,5.783349E1,1.783775E2,-1.5010009E1,1.6706219E1,9.059151E1,2.3567131E2,1.1109233E1,1.6562456E1,1.1786466E1,2.9783567E1,-1.5356541E1,-8.453056E0,9.661415E0,3.7989628E1,7.479351E1,1.3023636E2,3.2007372E0,7.561214E0,-4.6669078E-1,-4.2036554E-1,-2.9638952E-1,-8.836793E-2,1.5796782E-1,5.532572E-1,7.6328313E-1,1.3392005E0,1.9661831E0,2.763396E0,2.5162308E0,4.25089E0],"categories":[],"categories_nodes":[],"categories_segments":[],"categories_sizes":[],"default_left":[0,0,0,0,0,0,0,0,0,0,0,0,0,0,0,0,0,0,0,0,0,0,0,0,0,0,0,0,0,0,0,0,0,0,0,0,0,0,0,0,0,0,0],"id":10,"left_children":[1,3,5,7,9,11,13,15,17,19,21,-1,-1,-1,-1,23,25,27,29,-1,-1,-1,-1,31,33,35,37,39,41,-1,-1,-1,-1,-1,-1,-1,-1,-1,-1,-1,-1,-1,-1],"loss_changes":[6.1820774E8,3.3999384E7,1.2331725E8,2.472118E6,3.179484E6,1.623152E6,3.4257856E7,3.0729575E5,4.61182E5,2.55825E4,7.3682E4,0E0,0E0,0E0,0E0,4.059975E4,4.6263508E4,5.4769E4,3.4337E4,0E0,0E0,0E0,0E0,4.355E3,7.057824E3,8.973299E3,5.2892266E3,6.1440312E3,2.9919375E3,0E0,0E0,0E0,0E0,0E0,0E0,0E0,0E0,0E0,0E0,0E0,0E0,0E0,0E0],"parents":[2147483647,0,0,1,1,2,2,3,3,4,4,5,5,6,6,7,7,8,8,9,9,10,10,15,15,16,16,17,17,18,18,23,23,24,24,25,25,26,26,27,27,28,28],"right_children":[2,4,6,8,10,12,14,16,18,20,22,-1,-1,-1,-1,24,26,28,30,-1,-1,-1,-1,32,34,36,38,40,42,-1,-1,-1,-1,-1,-1,-1,-1,-1,-1,-1,-1,-1,-1],"split_conditions":[1.2798572E3,2.5342857E2,3.1641428E3,5.2E1,5.512857E2,1.9537142E3,2.5094845E-4,1.3142858E1,1.4185715E2,3.757143E2,7E0,4.5799213E1,6.698347E1,5.783349E1,1.783775E2,3.142857E0,3.342857E1,1.0185714E2,1.2195122E-1,1.1109233E1,1.6562456E1,1.1786466E1,2.9783567E1,1.4285715E-1,8.285714E0,2.2428572E1,1.4878543E-1,2.3076923E-1,1.4878543E-1,3.2007372E0,7.561214E0,-4.6669078E-1,-4.2036554E-1,-2.9638952E-1,-8.836793E-2,1.5796782E-1,5.532572E-1,7.6328313E-1,1.3392005E0,1.9661831E0,2.763396E0,2.5162308E0,4.25089E0],"split_indices":[3,3,3,3,3,3,4,3,3,3,7,0,0,0,0,3,3,3,5,0,0,0,0,3,3,3,5,5,5,0,0,0,0,0,0,0,0,0,0,0,0,0,0],"split_type":[0,0,0,0,0,0,0,0,0,0,0,0,0,0,0,0,0,0,0,0,0,0,0,0,0,0,0,0,0,0,0,0,0,0,0,0,0,0,0,0,0,0,0],"sum_hessian":[1.8498E4,1.8422E4,7.6E1,1.8364E4,5.8E1,5.9E1,1.7E1,1.8234E4,1.3E2,2.7E1,3.1E1,1.5E1,4.4E1,4E0,1.3E1,1.7924E4,3.1E2,1.02E2,2.8E1,1.5E1,1.2E1,2E0,2.9E1,1.7023E4,9.01E2,2.34E2,7.6E1,7.5E1,2.7E1,4E0,2.4E1,1.4811E4,2.212E3,7.15E2,1.86E2,1.57E2,7.7E1,2.8E1,4.8E1,5.2E1,2.3E1,7E0,2E1],"tree_param":{"num_deleted":"0","num_feature":"8","num_nodes":"43","size_leaf_vector":"1"}},{"base_weights":[-8.287722E-1,-1.1066267E1,2.700858E3,-1.30857E1,6.6542456E2,1.9720813E3,5.241567E3,-1.4072434E1,1.19668274E2,4.418863E2,2.6932804E1,4.336111E1,6.2931187E1,8.603696E1,1.7532E2,-1.4594966E1,1.3967896E1,8.766272E1,2.2524635E2,1.0656781E1,1.54665985E1,-1.4925918E1,-8.610426E0,6.5364456E0,3.087958E1,7.212079E1,3.7389479E0,5.3174925E0,7.774951E0,-4.5309097E-1,-4.1131362E-1,-3.073563E-1,-1.3619666E-1,7.8448825E-2,3.801013E-1,7.4521816E-1,1.1674572E0,1.7235402E0,2.422733E0],"categories":[],"categories_nodes":[],"categories_segments":[],"categories_sizes":[],"default_left":[0,0,0,0,0,0,0,0,0,0,0,0,0,0,0,0,0,0,0,0,0,0,0,0,0,0,0,0,0,0,0,0,0,0,0,0,0,0,0],"id":11,"left_children":[1,3,5,7,9,11,13,15,17,19,-1,-1,-1,-1,-1,21,23,25,27,-1,-1,29,31,33,35,37,-1,-1,-1,-1,-1,-1,-1,-1,-1,-1,-1,-1,-1],"loss_changes":[5.1287382E8,2.5245184E7,1.192759E8,2.4144425E6,2.459766E6,6.73456E5,4.689664E6,2.6810025E5,4.3980988E5,8.382E3,0E0,0E0,0E0,0E0,0E0,3.5423E4,4.19004E4,5.1915688E4,4.5305E3,0E0,0E0,3.4545E3,6.228633E3,5.5952236E3,3.9830938E3,5.11625E3,0E0,0E0,0E0,0E0,0E0,0E0,0E0,0E0,0E0,0E0,0E0,0E0,0E0],"parents":[2147483647,0,0,1,1,2,2,3,3,4,4,5,5,6,6,7,7,8,8,9,9,15,15,16,16,17,17,18,18,21,21,22,22,23,23,24,24,25,25],"right_children":[2,4,6,8,10,12,14,16,18,20,-1,-1,-1,-1,-1,22,24,26,28,-1,-1,30,32,34,36,38,-1,-1,-1,-1,-1,-1,-1,-1,-1,-1,-1,-1,-1],"split_conditions":[1.812E3,4.65E2,4.032E3,9.1E1,8.71E2,2.503E3,6.7707E4,2.1E1,2.43E2,6.45E2,2.6932804E1,4.336111E1,6.2931187E1,8.603696E1,1.7532E2,5E0,4.8E1,1.61E2,3.5E2,1.0656781E1,1.54665985E1,1E0,1.1E1,3.2E1,6.7E1,1.14E2,3.7389479E0,5.3174925E0,7.774951E0,-4.5309097E-1,-4.1131362E-1,-3.073563E-1,-1.3619666E-1,7.8448825E-2,3.801013E-1,7.4521816E-1,1.1674572E0,1.7235402E0,2.422733E0],"split_indices":[1,1,1,1,1,1,0,1,1,1,0,0,0,0,0,1,1,1,1,0,0,1,1,1,1,1,0,0,0,0,0,0,0,0,0,0,0,0,0],"split_type":[0,0,0,0,0,0,0,0,0,0,0,0,0,0,0,0,0,0,0,0,0,0,0,0,0,0,0,0,0,0,0,0,0,0,0,0,0,0,0],"sum_hessian":[1.8541E4,1.8472E4,6.9E1,1.8418E4,5.4E1,5.5E1,1.4E1,1.8283E4,1.35E2,2.9E1,2.5E1,1.3E1,4.2E1,4E0,1E1,1.7949E4,3.34E2,1.05E2,3E1,1.6E1,1.3E1,1.7007E4,9.42E2,2.33E2,1.01E2,7.6E1,2.9E1,1.5E1,1.5E1,1.4834E4,2.173E3,6.71E2,2.71E2,1.43E2,9E1,6E1,4.1E1,3.1E1,4.5E1],"tree_param":{"num_deleted":"0","num_feature":"8","num_nodes":"39","size_leaf_vector":"1"}},{"base_weights":[-1.4523847E-1,-1.0287614E1,2.6742563E3,-1.2411618E1,8.04615E2,1.9700123E3,4.927954E3,-1.3310131E1,2.1041737E2,1.903458E1,3.232583E1,4.247166E1,6.4274345E1,5.4935135E1,1.7422853E2,-1.3914922E1,4.5467762E1,1.3585701E2,9.283719E0,-1.4238924E1,1.6092708E0,3.204262E1,7.552435E1,2.3187246E0,4.461257E0,-4.3508676E-1,-3.038192E-1,-8.860991E-2,1.8417597E-1,7.3113984E-1,1.3706408E0,1.9947147E0,2.742114E0],"categories":[],"categories_nodes":[],"categories_segments":[],"categories_sizes":[],"default_left":[0,0,0,0,0,0,0,0,0,0,0,0,0,0,0,0,0,0,0,0,0,0,0,0,0,0,0,0,0,0,0,0,0],"id":12,"left_children":[1,3,5,7,9,11,13,15,17,-1,-1,-1,-1,-1,-1,19,21,23,-1,25,27,29,31,-1,-1,-1,-1,-1,-1,-1,-1,-1,-1],"loss_changes":[5.0256842E8,3.1958138E7,1.0139264E8,3.6889542E6,1.54498E6,2.224624E6,3.2951328E7,6.52518E5,5.044075E5,0E0,0E0,0E0,0E0,0E0,0E0,9.132525E4,7.3037125E4,2.16235E4,0E0,1.915125E4,7.7072856E3,1.2599328E4,2.0993125E3,0E0,0E0,0E0,0E0,0E0,0E0,0E0,0E0,0E0,0E0],"parents":[2147483647,0,0,1,1,2,2,3,3,4,4,5,5,6,6,7,7,8,8,15,15,16,16,17,17,19,19,20,20,21,21,22,22],"right_children":[2,4,6,8,10,12,14,16,18,-1,-1,-1,-1,-1,-1,20,22,24,-1,26,28,30,32,-1,-1,-1,-1,-1,-1,-1,-1,-1,-1],"split_conditions":[1.2798572E3,3.757143E2,3.1641428E3,1.0185714E2,8.315714E2,1.9537142E3,2.5094845E-4,2.6285715E1,1.8414285E2,1.903458E1,3.232583E1,4.247166E1,6.4274345E1,5.4935135E1,1.7422853E2,8.285714E0,6.157143E1,8.410351E-2,9.283719E0,2.142857E0,1.3142858E1,4.357143E1,2.3076923E-1,2.3187246E0,4.461257E0,-4.3508676E-1,-3.038192E-1,-8.860991E-2,1.8417597E-1,7.3113984E-1,1.3706408E0,1.9947147E0,2.742114E0],"split_indices":[3,3,3,3,3,3,4,3,3,0,0,0,0,0,0,3,3,4,0,3,3,3,5,0,0,0,0,0,0,0,0,0,0],"split_type":[0,0,0,0,0,0,0,0,0,0,0,0,0,0,0,0,0,0,0,0,0,0,0,0,0,0,0,0,0,0,0,0,0],"sum_hessian":[1.8526E4,1.8457E4,6.9E1,1.841E4,4.7E1,5.4E1,1.5E1,1.8337E4,7.3E1,3.1E1,1.6E1,1.5E1,3.9E1,4E0,1.1E1,1.8151E4,1.86E2,4.3E1,3E1,1.778E4,3.71E2,1.3E2,5.6E1,9E0,3.4E1,1.6705E4,1.075E3,1.85E2,1.86E2,8.5E1,4.5E1,3.9E1,1.7E1],"tree_param":{"num_deleted":"0","num_feature":"8","num_nodes":"33","size_leaf_vector":"1"}},{"base_weights":[5.2536964E-1,-1.0204074E1,2.683604E3,-1.2321377E1,6.51967E2,1.85317E3,4.9899565E3,-1.317914E1,1.23341E2,4.2335416E2,8.588476E2,3.9989998E1,5.9382923E1,1.12056656E2,1.982198E2,-1.3684905E1,1.8444427E1,8.8523834E1,2.119697E2,9.876612E0,1.4866198E1,2.0656431E1,3.012882E1,-1.4023495E1,-7.0251718E0,9.327445E0,3.3864647E1,2.1795616E0,3.5000262E0,4.9617257E0,7.4463487E0,-4.2476913E-1,-3.666492E-1,-2.7151743E-1,-7.286123E-2,1.6745576E-1,4.4307482E-1,7.9834807E-1,1.287129E0],"categories":[],"categories_nodes":[],"categories_segments":[],"categories_sizes":[],"default_left":[0,0,0,0,0,0,0,0,0,0,0,0,0,0,0,0,0,0,0,0,0,0,0,0,0,0,0,0,0,0,0,0,0,0,0,0,0,0,0],"id":13,"left_children":[1,3,5,7,9,11,13,15,17,19,21,-1,-1,-1,-1,23,25,27,29,-1,-1,-1,-1,31,33,35,37,-1,-1,-1,-1,-1,-1,-1,-1,-1,-1,-1,-1],"loss_changes":[5.3484973E8,2.5952356E7,1.3248301E8,2.1482322E6,2.42684E6,1.039312E6,1.387824E7,2.934565E5,3.391885E5,4.07115E4,5.158E4,0E0,0E0,0E0,0E0,4.058925E4,4.0313453E4,2.94925E4,1.2967625E4,0E0,0E0,0E0,0E0,4.0185E3,8.1240234E3,3.64754E3,5.873703E3,0E0,0E0,0E0,0E0,0E0,0E0,0E0,0E0,0E0,0E0,0E0,0E0],"parents":[2147483647,0,0,1,1,2,2,3,3,4,4,5,5,6,6,7,7,8,8,9,9,10,10,15,15,16,16,17,17,18,18,23,23,24,24,25,25,26,26],"right_children":[2,4,6,8,10,12,14,16,18,20,22,-1,-1,-1,-1,24,26,28,30,-1,-1,-1,-1,32,34,36,38,-1,-1,-1,-1,-1,-1,-1,-1,-1,-1,-1,-1],"split_conditions":[1.812E3,4.65E2,4.032E3,1.05E2,8.71E2,2.503E3,6.557343E4,2.4E1,2.43E2,6.45E2,1.331E3,3.9989998E1,5.9382923E1,1.12056656E2,1.982198E2,6E0,5.2E1,1.61E2,3.5E2,9.876612E0,1.4866198E1,2.0656431E1,3.012882E1,2E0,1.3E1,3.6E1,7.5E1,2.1795616E0,3.5000262E0,4.9617257E0,7.4463487E0,-4.2476913E-1,-3.666492E-1,-2.7151743E-1,-7.286123E-2,1.6745576E-1,4.4307482E-1,7.9834807E-1,1.287129E0],"split_indices":[1,1,1,1,1,1,2,1,1,1,1,0,0,0,0,1,1,1,1,0,0,0,0,1,1,1,1,0,0,0,0,0,0,0,0,0,0,0,0],"split_type":[0,0,0,0,0,0,0,0,0,0,0,0,0,0,0,0,0,0,0,0,0,0,0,0,0,0,0,0,0,0,0,0,0,0,0,0,0,0,0],"sum_hessian":[1.8577E4,1.8504E4,7.3E1,1.8446E4,5.8E1,5.5E1,1.8E1,1.8331E4,1.15E2,2.9E1,2.9E1,1.3E1,4.2E1,1.2E1,6E0,1.8043E4,2.88E2,8.4E1,3.1E1,1.5E1,1.4E1,1.6E1,1.3E1,1.7169E4,8.74E2,1.82E2,1.06E2,5.6E1,2.8E1,1.6E1,1.5E1,1.5962E4,1.207E3,6.06E2,2.68E2,1.09E2,7.3E1,6.1E1,4.5E1],"tree_param":{"num_deleted":"0","num_feature":"8","num_nodes":"39","size_leaf_vector":"1"}},{"base_weights":[-1.7307618E-1,-9.794787E0,2.435572E3,-1.1940858E1,6.4924774E2,1.8600836E3,4.3694946E3,-1.2767537E1,1.17497635E2,4.2119348E2,8.632622E2,3.86817E1,5.9888924E1,5.21915E1,1.5303333E2,-1.3290572E1,1.6209269E1,8.483346E1,2.0537782E2,9.543475E0,1.4621046E1,1.973577E1,3.0056215E1,-1.3599137E1,-7.5005546E0,8.277185E0,3.65151E1,6.54466E1,1.0229228E2,3.0261712E0,6.647859E0,-4.1334632E-1,-3.7172094E-1,-2.6196262E-1,-8.1341766E-2,1.4145704E-1,4.835159E-1,7.646553E-1,1.2704816E0,1.6823031E0,2.4455798E0,2.313663E0,3.5025463E0],"categories":[],"categories_nodes":[],"categories_segments":[],"categories_sizes":[],"default_left":[0,0,0,0,0,0,0,0,0,0,0,0,0,0,0,0,0,0,0,0,0,0,0,0,0,0,0,0,0,0,0,0,0,0,0,0,0,0,0,0,0,0,0],"id":14,"left_children":[1,3,5,7,9,11,13,15,17,19,21,-1,-1,-1,-1,23,25,27,29,-1,-1,-1,-1,31,33,35,37,39,41,-1,-1,-1,-1,-1,-1,-1,-1,-1,-1,-1,-1,-1,-1],"loss_changes":[4.348092E8,2.6144968E7,7.311773E7,1.9726228E6,2.564814E6,1.934704E6,2.1909344E7,2.7764425E5,3.184295E5,5.6416E4,1.95046E5,0E0,0E0,0E0,0E0,3.202275E4,5.204471E4,2.2752438E4,3.0186375E4,0E0,0E0,0E0,0E0,3.52325E3,5.3553164E3,6.486552E3,4.7748203E3,2.0550156E3,7.0093125E3,0E0,0E0,0E0,0E0,0E0,0E0,0E0,0E0,0E0,0E0,0E0,0E0,0E0,0E0],"parents":[2147483647,0,0,1,1,2,2,3,3,4,4,5,5,6,6,7,7,8,8,9,9,10,10,15,15,16,16,17,17,18,18,23,23,24,24,25,25,26,26,27,27,28,28],"right_children":[2,4,6,8,10,12,14,16,18,20,22,-1,-1,-1,-1,24,26,28,30,-1,-1,-1,-1,32,34,36,38,40,42,-1,-1,-1,-1,-1,-1,-1,-1,-1,-1,-1,-1,-1,-1],"split_conditions":[1.2798572E3,2.5342857E2,3.1641428E3,6.157143E1,5.512857E2,1.9537142E3,4.411765E-2,1.3142858E1,1.4185715E2,3.757143E2,8.315714E2,3.86817E1,5.9888924E1,5.21915E1,1.5303333E2,3.142857E0,3.342857E1,9.085714E1,1.4878543E-1,9.543475E0,1.4621046E1,1.973577E1,3.0056215E1,1.4285715E-1,8.285714E0,2.2428572E1,1.4878543E-1,2.3076923E-1,1.770905E-1,3.0261712E0,6.647859E0,-4.1334632E-1,-3.7172094E-1,-2.6196262E-1,-8.1341766E-2,1.4145704E-1,4.835159E-1,7.646553E-1,1.2704816E0,1.6823031E0,2.4455798E0,2.313663E0,3.5025463E0],"split_indices":[3,3,3,3,3,3,5,3,3,3,3,0,0,0,0,3,3,3,5,0,0,0,0,3,3,3,5,5,5,0,0,0,0,0,0,0,0,0,0,0,0,0,0],"split_type":[0,0,0,0,0,0,0,0,0,0,0,0,0,0,0,0,0,0,0,0,0,0,0,0,0,0,0,0,0,0,0,0,0,0,0,0,0,0,0,0,0,0,0],"sum_hessian":[1.8551E4,1.8479E4,7.2E1,1.842E4,5.9E1,5.7E1,1.5E1,1.8304E4,1.16E2,3E1,2.9E1,1.3E1,4.4E1,4E0,1.1E1,1.798E4,3.24E2,8.6E1,3E1,1.4E1,1.6E1,1.4E1,1.5E1,1.7069E4,9.11E2,2.34E2,9E1,4.3E1,4.3E1,5E0,2.5E1,1.4857E4,2.212E3,7.24E2,1.87E2,1.62E2,7.2E1,3.3E1,5.7E1,3E1,1.3E1,1.8E1,2.5E1],"tree_param":{"num_deleted":"0","num_feature":"8","num_nodes":"43","size_leaf_vector":"1"}},{"base_weights":[4.1034508E-1,-9.565365E0,2.4795034E3,-1.137483E1,7.451579E2,1.7363932E3,4.868968E3,-1.2090202E1,2.1441023E2,1.7225388E1,2.9488089E1,3.8251507E1,5.603023E1,1.9362822E2,1.1011702E2,-1.2663172E1,5.0164867E1,4.2987065E0,8.564782E0,-1.3049845E1,1.6694638E0,3.2255405E1,7.452148E1,-3.9746025E-1,-2.8044334E-1,-4.9904868E-2,3.4467822E-1,7.575712E-1,1.1982676E0,1.7568685E0,2.4625893E0],"categories":[],"categories_nodes":[],"categories_segments":[],"categories_sizes":[],"default_left":[0,0,0,0,0,0,0,0,0,0,0,0,0,0,0,0,0,0,0,0,0,0,0,0,0,0,0,0,0,0,0],"id":15,"left_children":[1,3,5,7,9,11,13,15,17,-1,-1,-1,-1,-1,-1,19,21,-1,-1,23,25,27,29,-1,-1,-1,-1,-1,-1,-1,-1],"loss_changes":[4.5662688E8,2.5122696E7,1.2294262E8,2.9660072E6,1.224434E6,1.131424E6,8.606272E6,6.530445E5,2.52304E5,0E0,0E0,0E0,0E0,0E0,0E0,1.0046575E5,7.0444E4,0E0,0E0,1.28655E4,1.5630859E4,4.2668203E3,3.643875E3,0E0,0E0,0E0,0E0,0E0,0E0,0E0,0E0],"parents":[2147483647,0,0,1,1,2,2,3,3,4,4,5,5,6,6,7,7,8,8,15,15,16,16,19,19,20,20,21,21,22,22],"right_children":[2,4,6,8,10,12,14,16,18,-1,-1,-1,-1,-1,-1,20,22,-1,-1,24,26,28,30,-1,-1,-1,-1,-1,-1,-1,-1],"split_conditions":[1.812E3,6.45E2,4.032E3,1.98E2,1.331E3,2.503E3,7.438017E-2,5.2E1,3.5E2,1.7225388E1,2.9488089E1,3.8251507E1,5.603023E1,1.9362822E2,1.1011702E2,1.2E1,1.05E2,4.2987065E0,8.564782E0,4E0,3E1,7.5E1,1.28E2,-3.9746025E-1,-2.8044334E-1,-4.9904868E-2,3.4467822E-1,7.575712E-1,1.1982676E0,1.7568685E0,2.4625893E0],"split_indices":[1,1,1,1,1,1,4,1,1,0,0,0,0,0,0,1,1,0,0,1,1,1,1,0,0,0,0,0,0,0,0],"split_type":[0,0,0,0,0,0,0,0,0,0,0,0,0,0,0,0,0,0,0,0,0,0,0,0,0,0,0,0,0,0,0],"sum_hessian":[1.8462E4,1.8389E4,7.3E1,1.8346E4,4.3E1,5.7E1,1.6E1,1.8289E4,5.7E1,2.7E1,1.6E1,1.5E1,4.2E1,5E0,1.1E1,1.8123E4,1.66E2,3E1,2.7E1,1.7647E4,4.76E2,9.7E1,6.9E1,1.6745E4,9.02E2,3.56E2,1.2E2,5.3E1,4.4E1,2.5E1,4.4E1],"tree_param":{"num_deleted":"0","num_feature":"8","num_nodes":"31","size_leaf_vector":"1"}},{"base_weights":[4.2457944E-1,-9.21714E0,2.4650833E3,-1.1227714E1,6.161592E2,1.6665278E3,4.6049204E3,-1.2038218E1,1.11981415E2,3.9808447E2,8.280266E2,4.1918007E1,5.7082798E1,1.8878749E2,1.0657712E2,-1.2492059E1,1.6887785E1,8.001911E1,1.9737714E2,9.179336E0,1.3678149E1,1.8880003E1,2.914554E1,-1.2802125E1,-6.3984966E0,9.665193E0,3.296526E1,6.64486E1,3.216308E0,4.5979652E0,6.8185062E0,-3.8777277E-1,-3.3394948E-1,-2.3849458E-1,-3.959431E-2,1.7433575E-1,4.782167E-1,7.4194336E-1,1.1741999E0,1.6863499E0,2.2286737E0],"categories":[],"categories_nodes":[],"categories_segments":[],"categories_sizes":[],"default_left":[0,0,0,0,0,0,0,0,0,0,0,0,0,0,0,0,0,0,0,0,0,0,0,0,0,0,0,0,0,0,0,0,0,0,0,0,0,0,0,0,0],"id":16,"left_children":[1,3,5,7,9,11,13,15,17,19,21,-1,-1,-1,-1,23,25,27,29,-1,-1,-1,-1,31,33,35,37,39,-1,-1,-1,-1,-1,-1,-1,-1,-1,-1,-1,-1,-1],"loss_changes":[4.39078E8,2.3148716E7,1.1535786E8,1.8335068E6,2.39635E6,7.76192E5,1.1394848E7,2.39505E5,3.1173938E5,2.5683E4,2.15404E5,0E0,0E0,0E0,0E0,3.38275E4,3.2427516E4,2.5716875E4,7.380375E3,0E0,0E0,0E0,0E0,3.383E3,6.85184E3,4.6476777E3,3.4552344E3,8.00375E2,0E0,0E0,0E0,0E0,0E0,0E0,0E0,0E0,0E0,0E0,0E0,0E0,0E0],"parents":[2147483647,0,0,1,1,2,2,3,3,4,4,5,5,6,6,7,7,8,8,9,9,10,10,15,15,16,16,17,17,18,18,23,23,24,24,25,25,26,26,27,27],"right_children":[2,4,6,8,10,12,14,16,18,20,22,-1,-1,-1,-1,24,26,28,30,-1,-1,-1,-1,32,34,36,38,40,-1,-1,-1,-1,-1,-1,-1,-1,-1,-1,-1,-1,-1],"split_conditions":[1.812E3,4.65E2,4.032E3,1.05E2,8.71E2,2.902E3,7.438017E-2,2.4E1,2.43E2,6.45E2,1.331E3,4.1918007E1,5.7082798E1,1.8878749E2,1.0657712E2,6E0,5.5E1,1.61E2,3.5E2,9.179336E0,1.3678149E1,1.8880003E1,2.914554E1,2E0,1.4E1,3.9E1,7.5E1,1.28E2,3.216308E0,4.5979652E0,6.8185062E0,-3.8777277E-1,-3.3394948E-1,-2.3849458E-1,-3.959431E-2,1.7433575E-1,4.782167E-1,7.4194336E-1,1.1741999E0,1.6863499E0,2.2286737E0],"split_indices":[1,1,1,1,1,1,4,1,1,1,1,0,0,0,0,1,1,1,1,0,0,0,0,1,1,1,1,1,0,0,0,0,0,0,0,0,0,0,0,0,0],"split_type":[0,0,0,0,0,0,0,0,0,0,0,0,0,0,0,0,0,0,0,0,0,0,0,0,0,0,0,0,0,0,0,0,0,0,0,0,0,0,0,0,0],"sum_hessian":[1.8475E4,1.8404E4,7.1E1,1.8346E4,5.8E1,5.3E1,1.8E1,1.8227E4,1.19E2,3E1,2.8E1,2.8E1,2.5E1,5E0,1.3E1,1.7946E4,2.81E2,8.8E1,3.1E1,1.4E1,1.6E1,1.4E1,1.4E1,1.7076E4,8.7E2,1.95E2,8.6E1,6.1E1,2.7E1,1.5E1,1.6E1,1.5893E4,1.183E3,6.66E2,2.04E2,1.22E2,7.3E1,3.9E1,4.7E1,3E1,3.1E1],"tree_param":{"num_deleted":"0","num_feature":"8","num_nodes":"41","size_leaf_vector":"1"}},{"base_weights":[-2.6443952E-1,-8.816693E0,2.1998066E3,-1.0931131E1,6.1088696E2,1.6705665E3,3.9477363E3,-1.16597E1,1.0746465E2,3.8855463E2,8.141291E2,3.645607E1,5.4127895E1,4.5187683E1,1.3185867E2,-1.2131649E1,1.4798293E1,7.86436E1,1.9214842E2,9.089637E0,1.3386954E1,1.8973627E1,2.8116817E1,-1.2409904E1,-6.797725E0,7.6349487E0,3.346598E1,6.470422E1,1.0250696E2,3.7521203E0,6.3817797E0,-3.773943E-1,-3.3797744E-1,-2.3773102E-1,-7.274789E-2,1.3047905E-1,4.4465387E-1,7.232348E-1,1.1725503E0,1.1943218E0,2.0746102E0,2.025183E0,3.4287825E0],"categories":[],"categories_nodes":[],"categories_segments":[],"categories_sizes":[],"default_left":[0,0,0,0,0,0,0,0,0,0,0,0,0,0,0,0,0,0,0,0,0,0,0,0,0,0,0,0,0,0,0,0,0,0,0,0,0,0,0,0,0,0,0],"id":17,"left_children":[1,3,5,7,9,11,13,15,17,19,21,-1,-1,-1,-1,23,25,27,29,-1,-1,-1,-1,31,33,35,37,39,41,-1,-1,-1,-1,-1,-1,-1,-1,-1,-1,-1,-1,-1,-1],"loss_changes":[3.4985718E8,2.427651E7,6.00104E7,1.5936045E6,2.530466E6,1.277648E6,1.086264E7,2.2928725E5,2.6068512E5,2.2725E4,1.2289E5,0E0,0E0,0E0,0E0,2.6671E4,4.280332E4,2.1974438E4,1.20425625E4,0E0,0E0,0E0,0E0,3.18825E3,4.394996E3,5.461082E3,3.7376953E3,3.5604062E3,4.6599375E3,0E0,0E0,0E0,0E0,0E0,0E0,0E0,0E0,0E0,0E0,0E0,0E0,0E0,0E0],"parents":[2147483647,0,0,1,1,2,2,3,3,4,4,5,5,6,6,7,7,8,8,9,9,10,10,15,15,16,16,17,17,18,18,23,23,24,24,25,25,26,26,27,27,28,28],"right_children":[2,4,6,8,10,12,14,16,18,20,22,-1,-1,-1,-1,24,26,28,30,-1,-1,-1,-1,32,34,36,38,40,42,-1,-1,-1,-1,-1,-1,-1,-1,-1,-1,-1,-1,-1,-1],"split_conditions":[1.2798572E3,2.5342857E2,3.1641428E3,6.157143E1,5.512857E2,1.9537142E3,2.5094845E-4,1.3142858E1,1.4185715E2,3.757143E2,8.315714E2,3.645607E1,5.4127895E1,4.5187683E1,1.3185867E2,3.2857144E0,3.342857E1,1.0185714E2,1.2751678E-1,9.089637E0,1.3386954E1,1.8973627E1,2.8116817E1,1.4285715E-1,8.285714E0,2.2428572E1,1.4878543E-1,2.173913E-2,1.4878543E-1,3.7521203E0,6.3817797E0,-3.773943E-1,-3.3797744E-1,-2.3773102E-1,-7.274789E-2,1.3047905E-1,4.4465387E-1,7.232348E-1,1.1725503E0,1.1943218E0,2.0746102E0,2.025183E0,3.4287825E0],"split_indices":[3,3,3,3,3,3,4,3,3,3,3,0,0,0,0,3,3,3,4,0,0,0,0,3,3,3,5,4,5,0,0,0,0,0,0,0,0,0,0,0,0,0,0],"split_type":[0,0,0,0,0,0,0,0,0,0,0,0,0,0,0,0,0,0,0,0,0,0,0,0,0,0,0,0,0,0,0,0,0,0,0,0,0,0,0,0,0,0,0],"sum_hessian":[1.8592E4,1.8521E4,7.1E1,1.8459E4,6.2E1,5.6E1,1.5E1,1.8347E4,1.12E2,3.1E1,3.1E1,1.5E1,4.1E1,3E0,1.2E1,1.8026E4,3.21E2,8.5E1,2.7E1,1.5E1,1.6E1,1.5E1,1.6E1,1.7131E4,8.95E2,2.33E2,8.8E1,5.6E1,2.9E1,8E0,1.9E1,1.4907E4,2.224E3,7.11E2,1.84E2,1.61E2,7.2E1,3.5E1,5.3E1,1E1,4.6E1,9E0,2E1],"tree_param":{"num_deleted":"0","num_feature":"8","num_nodes":"43","size_leaf_vector":"1"}},{"base_weights":[3.98467E-2,-8.786153E0,2.206062E3,-1.0573089E1,5.6945746E2,1.590908E3,4.175054E3,-1.134273E1,1.0702005E2,3.760516E2,7.4322687E2,3.977441E1,5.430854E1,9.242733E1,1.7002495E2,-1.176781E1,1.5408712E1,7.77395E1,1.8511218E2,8.874742E0,1.293625E1,1.7764168E1,2.5884335E1,-1.2044908E1,-6.1444445E0,7.768072E0,2.961903E1,6.353186E1,3.0318449E0,4.25837E0,6.4455166E0,-3.648902E-1,-3.1417984E-1,-2.3778921E-1,-7.99282E-2,1.3596262E-1,3.875597E-1,6.853032E-1,1.1122916E0,1.5975666E0,2.1230185E0],"categories":[],"categories_nodes":[],"categories_segments":[],"categories_sizes":[],"default_left":[0,0,0,0,0,0,0,0,0,0,0,0,0,0,0,0,0,0,0,0,0,0,0,0,0,0,0,0,0,0,0,0,0,0,0,0,0,0,0,0,0],"id":18,"left_children":[1,3,5,7,9,11,13,15,17,19,21,-1,-1,-1,-1,23,25,27,29,-1,-1,-1,-1,31,33,35,37,39,-1,-1,-1,-1,-1,-1,-1,-1,-1,-1,-1,-1,-1],"loss_changes":[3.6156432E8,1.9117648E7,8.298918E7,1.6701182E6,1.636166E6,9.72912E5,1.029904E7,2.0851875E5,2.5999925E5,7.6425E2,1.306E4,0E0,0E0,0E0,0E0,2.80285E4,3.0931203E4,2.3069562E4,1.0581375E4,0E0,0E0,0E0,0E0,3.06375E3,5.2436855E3,3.0748877E3,4.2058516E3,5.453906E2,0E0,0E0,0E0,0E0,0E0,0E0,0E0,0E0,0E0,0E0,0E0,0E0,0E0],"parents":[2147483647,0,0,1,1,2,2,3,3,4,4,5,5,6,6,7,7,8,8,9,9,10,10,15,15,16,16,17,17,18,18,23,23,24,24,25,25,26,26,27,27],"right_children":[2,4,6,8,10,12,14,16,18,20,22,-1,-1,-1,-1,24,26,28,30,-1,-1,-1,-1,32,34,36,38,40,-1,-1,-1,-1,-1,-1,-1,-1,-1,-1,-1,-1,-1],"split_conditions":[1.812E3,4.65E2,4.032E3,1.05E2,8.71E2,2.902E3,6.557343E4,2.3E1,2.43E2,6.45E2,1.331E3,3.977441E1,5.430854E1,9.242733E1,1.7002495E2,6E0,5.2E1,1.61E2,3.5E2,8.874742E0,1.293625E1,1.7764168E1,2.5884335E1,2E0,1.2E1,3.6E1,7.5E1,1.28E2,3.0318449E0,4.25837E0,6.4455166E0,-3.648902E-1,-3.1417984E-1,-2.3778921E-1,-7.99282E-2,1.3596262E-1,3.875597E-1,6.853032E-1,1.1122916E0,1.5975666E0,2.1230185E0],"split_indices":[1,1,1,1,1,1,2,1,1,1,1,0,0,0,0,1,1,1,1,0,0,0,0,1,1,1,1,1,0,0,0,0,0,0,0,0,0,0,0,0,0],"split_type":[0,0,0,0,0,0,0,0,0,0,0,0,0,0,0,0,0,0,0,0,0,0,0,0,0,0,0,0,0,0,0,0,0,0,0,0,0,0,0,0,0],"sum_hessian":[1.8568E4,1.8495E4,7.3E1,1.8439E4,5.6E1,5.7E1,1.6E1,1.832E4,1.19E2,2.8E1,2.8E1,2.9E1,2.8E1,1.1E1,5E0,1.8034E4,2.86E2,8.8E1,3.1E1,1.4E1,1.4E1,1.5E1,1.3E1,1.7186E4,8.48E2,1.87E2,9.9E1,5.7E1,3.1E1,1.5E1,1.6E1,1.5979E4,1.207E3,5.6E2,2.88E2,1.16E2,7.1E1,5.4E1,4.5E1,2.7E1,3E1],"tree_param":{"num_deleted":"0","num_feature":"8","num_nodes":"41","size_leaf_vector":"1"}},{"base_weights":[3.9240036E-2,-8.463516E0,2.2436733E3,-1.0278364E1,5.7800806E2,1.5301179E3,4.3782803E3,-1.1024879E1,9.241955E1,1.1134206E1,7.5181775E2,3.8823742E1,5.2563145E1,9.334654E1,1.7230156E2,-1.1457593E1,1.0550044E1,6.8655785E1,1.752739E2,1.7558205E1,2.5828932E1,-1.1701974E1,-6.859646E0,4.299274E0,2.2861074E1,5.325076E1,2.7148633E0,4.011943E0,6.153943E0,-3.554835E-1,-3.2100397E-1,-2.474319E-1,-1.23999394E-1,5.053721E-2,2.5685924E-1,5.153401E-1,8.5057694E-1,1.3501911E0,1.802661E0],"categories":[],"categories_nodes":[],"categories_segments":[],"categories_sizes":[],"default_left":[0,0,0,0,0,0,0,0,0,0,0,0,0,0,0,0,0,0,0,0,0,0,0,0,0,0,0,0,0,0,0,0,0,0,0,0,0,0,0],"id":19,"left_children":[1,3,5,7,9,11,13,15,17,-1,19,-1,-1,-1,-1,21,23,25,27,-1,-1,29,31,33,35,37,-1,-1,-1,-1,-1,-1,-1,-1,-1,-1,-1,-1,-1],"loss_changes":[3.5370794E8,1.9665666E7,9.992192E7,1.4128158E6,1.770444E6,5.6148E5,1.1525856E7,1.708065E5,2.4983438E5,0E0,4.1434E4,0E0,0E0,0E0,0E0,2.006025E4,2.7604953E4,3.0507312E4,8.5378125E3,0E0,0E0,2.3875E3,3.3983477E3,2.6605415E3,3.2891836E3,9.036094E2,0E0,0E0,0E0,0E0,0E0,0E0,0E0,0E0,0E0,0E0,0E0,0E0,0E0],"parents":[2147483647,0,0,1,1,2,2,3,3,4,4,5,5,6,6,7,7,8,8,10,10,15,15,16,16,17,17,18,18,21,21,22,22,23,23,24,24,25,25],"right_children":[2,4,6,8,10,12,14,16,18,-1,20,-1,-1,-1,-1,22,24,26,28,-1,-1,30,32,34,36,38,-1,-1,-1,-1,-1,-1,-1,-1,-1,-1,-1,-1,-1],"split_conditions":[1.812E3,4.65E2,4.032E3,9.1E1,8.71E2,2.902E3,6.557343E4,2E1,2.43E2,1.1134206E1,1.331E3,3.8823742E1,5.2563145E1,9.334654E1,1.7230156E2,5E0,4.4E1,1.46E2,3.5E2,1.7558205E1,2.5828932E1,1E0,1E1,3E1,6E1,1.14E2,2.7148633E0,4.011943E0,6.153943E0,-3.554835E-1,-3.2100397E-1,-2.474319E-1,-1.23999394E-1,5.053721E-2,2.5685924E-1,5.153401E-1,8.5057694E-1,1.3501911E0,1.802661E0],"split_indices":[1,1,1,1,1,1,2,1,1,0,1,0,0,0,0,1,1,1,1,0,0,1,1,1,1,1,0,0,0,0,0,0,0,0,0,0,0,0,0],"split_type":[0,0,0,0,0,0,0,0,0,0,0,0,0,0,0,0,0,0,0,0,0,0,0,0,0,0,0,0,0,0,0,0,0,0,0,0,0,0,0],"sum_hessian":[1.8539E4,1.847E4,6.9E1,1.8414E4,5.6E1,5.3E1,1.6E1,1.8282E4,1.32E2,2.7E1,2.9E1,2.9E1,2.4E1,1E1,6E0,1.7923E4,3.59E2,1.04E2,2.8E1,1.4E1,1.5E1,1.7017E4,9.06E2,2.39E2,1.2E2,6.3E1,4.1E1,1.4E1,1.4E1,1.4824E4,2.193E3,5.99E2,3.07E2,1.49E2,9E1,6.1E1,5.9E1,3.2E1,3.1E1],"tree_param":{"num_deleted":"0","num_feature":"8","num_nodes":"39","size_leaf_vector":"1"}},{"base_weights":[2.569295E-1,-8.196073E0,2.0282056E3,-9.981245E0,5.4912854E2,1.5602487E3,3.714776E3,-1.072366E1,8.429231E1,3.5366855E2,7.2628424E2,3.4223408E1,5.0095486E1,4.4574768E1,1.300182E2,-1.1063261E1,1.0902281E1,6.2761566E1,1.752677E2,8.202577E0,1.2470698E1,8.352618E0,2.2449926E1,-1.1298547E1,-5.5163984E0,5.164026E0,2.1034245E1,4.8240715E1,8.608662E1,1.3214618E2,6.3462353E0,-3.4267905E-1,-2.8511736E-1,-2.0200902E-1,-6.208396E-2,7.7586815E-2,2.775467E-1,4.9714157E-1,8.104559E-1,1.1099677E0,1.6245222E0,1.9527607E0,2.9831645E0,1.6952834E0,4.183071E0],"categories":[],"categories_nodes":[],"categories_segments":[],"categories_sizes":[],"default_left":[0,0,0,0,0,0,0,0,0,0,0,0,0,0,0,0,0,0,0,0,0,0,0,0,0,0,0,0,0,0,0,0,0,0,0,0,0,0,0,0,0,0,0,0,0],"id":20,"left_children":[1,3,5,7,9,11,13,15,17,19,21,-1,-1,-1,-1,23,25,27,29,-1,-1,-1,-1,31,33,35,37,39,41,43,-1,-1,-1,-1,-1,-1,-1,-1,-1,-1,-1,-1,-1,-1,-1],"loss_changes":[3.179883E8,1.838465E7,5.497565E7,1.289772E6,1.78612E6,9.45472E5,1.5641904E7,1.3431375E5,2.710625E5,3.565775E4,8.7866E4,0E0,0E0,0E0,0E0,2.3416E4,1.63449375E4,3.581372E4,1.42781875E4,0E0,0E0,0E0,0E0,3.73475E3,3.0657305E3,1.8937773E3,2.2749219E3,2.9794219E3,5.8615625E3,3.9092188E2,0E0,0E0,0E0,0E0,0E0,0E0,0E0,0E0,0E0,0E0,0E0,0E0,0E0,0E0,0E0],"parents":[2147483647,0,0,1,1,2,2,3,3,4,4,5,5,6,6,7,7,8,8,9,9,10,10,15,15,16,16,17,17,18,18,23,23,24,24,25,25,26,26,27,27,28,28,29,29],"right_children":[2,4,6,8,10,12,14,16,18,20,22,-1,-1,-1,-1,24,26,28,30,-1,-1,-1,-1,32,34,36,38,40,42,44,-1,-1,-1,-1,-1,-1,-1,-1,-1,-1,-1,-1,-1,-1,-1],"split_conditions":[1.2798572E3,2.5342857E2,3.1641428E3,4.857143E1,5.512857E2,1.9537142E3,4.411765E-2,1.3142858E1,1.4185715E2,3.757143E2,7E0,3.4223408E1,5.0095486E1,4.4574768E1,1.300182E2,4.142857E0,2.6285715E1,9.085714E1,1.8414285E2,8.202577E0,1.2470698E1,8.352618E0,2.2449926E1,1.1428572E0,8.285714E0,2.3076923E-1,2.3076923E-1,1.4878543E-1,1.770905E-1,4.411765E-2,6.3462353E0,-3.4267905E-1,-2.8511736E-1,-2.0200902E-1,-6.208396E-2,7.7586815E-2,2.775467E-1,4.9714157E-1,8.104559E-1,1.1099677E0,1.6245222E0,1.9527607E0,2.9831645E0,1.6952834E0,4.183071E0],"split_indices":[3,3,3,3,3,3,5,3,3,3,7,0,0,0,0,3,3,3,3,0,0,0,0,3,3,5,5,5,5,5,0,0,0,0,0,0,0,0,0,0,0,0,0,0,0],"split_type":[0,0,0,0,0,0,0,0,0,0,0,0,0,0,0,0,0,0,0,0,0,0,0,0,0,0,0,0,0,0,0,0,0,0,0,0,0,0,0,0,0,0,0,0,0],"sum_hessian":[1.8548E4,1.8472E4,7.6E1,1.8414E4,5.8E1,6.1E1,1.5E1,1.8271E4,1.43E2,2.9E1,2.9E1,1.5E1,4.6E1,4E0,1.1E1,1.7989E4,2.82E2,1.17E2,2.6E1,1.5E1,1.4E1,2E0,2.7E1,1.7256E4,7.33E2,1.81E2,1.01E2,7.4E1,4.3E1,1.4E1,1.2E1,1.6135E4,1.121E3,5.41E2,1.92E2,1.12E2,6.9E1,6E1,4.1E1,2.8E1,4.6E1,1.9E1,2.4E1,2E0,1.2E1],"tree_param":{"num_deleted":"0","num_feature":"8","num_nodes":"45","size_leaf_vector":"1"}},{"base_weights":[2.1873069E-1,-7.895338E0,2.068965E3,-9.651626E0,5.2784546E2,1.458682E3,4.1137886E3,-1.0326163E1,9.709129E1,3.4418066E2,7.1230853E2,3.5927208E1,4.9612812E1,1.5659311E2,8.020818E1,-1.0735673E1,1.3957266E1,6.9477745E1,1.7301376E2,8.009753E0,1.1897492E1,1.6320473E1,2.4993423E1,-1.0953952E1,-4.630159E0,7.7816463E0,2.8417816E1,6.087483E1,3.0993245E0,4.0148315E0,5.968119E0,-3.3218798E-1,-2.652055E-1,-1.810974E-1,-3.6601037E-2,1.2318884E-1,3.77127E-1,6.629413E-1,1.0046173E0,1.471356E0,2.0362546E0],"categories":[],"categories_nodes":[],"categories_segments":[],"categories_sizes":[],"default_left":[0,0,0,0,0,0,0,0,0,0,0,0,0,0,0,0,0,0,0,0,0,0,0,0,0,0,0,0,0,0,0,0,0,0,0,0,0,0,0,0,0],"id":21,"left_children":[1,3,5,7,9,11,13,15,17,19,21,-1,-1,-1,-1,23,25,27,29,-1,-1,-1,-1,31,33,35,37,39,-1,-1,-1,-1,-1,-1,-1,-1,-1,-1,-1,-1,-1],"loss_changes":[3.0934784E8,1.7277472E7,8.384963E7,1.3184965E6,1.787599E6,9.22888E5,1.152944E7,1.8097725E5,2.2907562E5,2.3552E4,1.36364E5,0E0,0E0,0E0,0E0,2.3782E4,2.6748324E4,1.8742375E4,3.851875E3,0E0,0E0,0E0,0E0,4.244125E3,2.9614033E3,3.6976455E3,2.1433828E3,2.5506875E3,0E0,0E0,0E0,0E0,0E0,0E0,0E0,0E0,0E0,0E0,0E0,0E0,0E0],"parents":[2147483647,0,0,1,1,2,2,3,3,4,4,5,5,6,6,7,7,8,8,9,9,10,10,15,15,16,16,17,17,18,18,23,23,24,24,25,25,26,26,27,27],"right_children":[2,4,6,8,10,12,14,16,18,20,22,-1,-1,-1,-1,24,26,28,30,-1,-1,-1,-1,32,34,36,38,40,-1,-1,-1,-1,-1,-1,-1,-1,-1,-1,-1,-1,-1],"split_conditions":[1.812E3,4.65E2,4.032E3,1.05E2,8.71E2,2.902E3,1.2195122E-1,2.3E1,2.43E2,6.45E2,1.331E3,3.5927208E1,4.9612812E1,1.5659311E2,8.020818E1,7E0,5.5E1,1.98E2,3.5E2,8.009753E0,1.1897492E1,1.6320473E1,2.4993423E1,3E0,1.5E1,3.6E1,7.5E1,1.28E2,3.0993245E0,4.0148315E0,5.968119E0,-3.3218798E-1,-2.652055E-1,-1.810974E-1,-3.6601037E-2,1.2318884E-1,3.77127E-1,6.629413E-1,1.0046173E0,1.471356E0,2.0362546E0],"split_indices":[1,1,1,1,1,1,5,1,1,1,1,0,0,0,0,1,1,1,1,0,0,0,0,1,1,1,1,1,0,0,0,0,0,0,0,0,0,0,0,0,0],"split_type":[0,0,0,0,0,0,0,0,0,0,0,0,0,0,0,0,0,0,0,0,0,0,0,0,0,0,0,0,0,0,0,0,0,0,0,0,0,0,0,0,0],"sum_hessian":[1.8427E4,1.8356E4,7.1E1,1.8297E4,5.9E1,5.6E1,1.5E1,1.8183E4,1.14E2,3.1E1,2.8E1,2.7E1,2.9E1,7E0,8E0,1.7882E4,3.01E2,8.5E1,2.9E1,1.5E1,1.6E1,1.4E1,1.4E1,1.7264E4,6.18E2,2.12E2,8.9E1,7E1,1.5E1,1.4E1,1.5E1,1.634E4,9.24E2,4.37E2,1.81E2,1.21E2,9.1E1,4.2E1,4.7E1,2.9E1,4.1E1],"tree_param":{"num_deleted":"0","num_feature":"8","num_nodes":"41","size_leaf_vector":"1"}},{"base_weights":[8.924564E-1,-7.631884E0,1.9956848E3,-9.335653E0,5.071711E2,1.4102147E3,3.9014326E3,-1.0026939E1,9.446773E1,3.9260117E2,2.4145845E1,3.1215384E1,4.5485607E1,8.5883545E1,1.650479E2,-1.0403729E1,1.4092452E1,6.7889305E1,1.6409166E2,7.667524E0,1.3714723E1,-1.0607328E1,-3.9033551E0,7.195871E0,2.619234E1,5.593796E1,2.6978219E0,3.8127756E0,5.7431507E0,-3.2224745E-1,-2.5457945E-1,-1.5681785E-1,-7.4194735E-3,1.1242768E-1,3.1472918E-1,6.0713995E-1,9.900344E-1,1.4026238E0,1.8995203E0],"categories":[],"categories_nodes":[],"categories_segments":[],"categories_sizes":[],"default_left":[0,0,0,0,0,0,0,0,0,0,0,0,0,0,0,0,0,0,0,0,0,0,0,0,0,0,0,0,0,0,0,0,0,0,0,0,0,0,0],"id":22,"left_children":[1,3,5,7,9,11,13,15,17,19,-1,-1,-1,-1,-1,21,23,25,27,-1,-1,29,31,33,35,37,-1,-1,-1,-1,-1,-1,-1,-1,-1,-1,-1,-1,-1],"loss_changes":[3.1569987E8,1.621978E7,8.264304E7,1.323228E6,1.764498E6,8.51424E5,1.416624E7,1.6651062E5,2.1462025E5,2.900425E5,0E0,0E0,0E0,0E0,0E0,2.3814E4,2.334382E4,1.8674281E4,9.0590625E3,0E0,0E0,4.88625E3,2.6560078E3,2.0172861E3,3.4673984E3,1.1736875E3,0E0,0E0,0E0,0E0,0E0,0E0,0E0,0E0,0E0,0E0,0E0,0E0,0E0],"parents":[2147483647,0,0,1,1,2,2,3,3,4,4,5,5,6,6,7,7,8,8,9,9,15,15,16,16,17,17,18,18,21,21,22,22,23,23,24,24,25,25],"right_children":[2,4,6,8,10,12,14,16,18,20,-1,-1,-1,-1,-1,22,24,26,28,-1,-1,30,32,34,36,38,-1,-1,-1,-1,-1,-1,-1,-1,-1,-1,-1,-1,-1],"split_conditions":[1.812E3,4.65E2,4.032E3,1.05E2,1.331E3,2.503E3,6.557343E4,2.4E1,2.43E2,6.45E2,2.4145845E1,3.1215384E1,4.5485607E1,8.5883545E1,1.650479E2,8E0,5.2E1,1.61E2,3.5E2,7.667524E0,1.3714723E1,3E0,1.7E1,3.4E1,7.5E1,1.28E2,2.6978219E0,3.8127756E0,5.7431507E0,-3.2224745E-1,-2.5457945E-1,-1.5681785E-1,-7.4194735E-3,1.1242768E-1,3.1472918E-1,6.0713995E-1,9.900344E-1,1.4026238E0,1.8995203E0],"split_indices":[1,1,1,1,1,1,2,1,1,1,0,0,0,0,0,1,1,1,1,0,0,1,1,1,1,1,0,0,0,0,0,0,0,0,0,0,0,0,0],"split_type":[0,0,0,0,0,0,0,0,0,0,0,0,0,0,0,0,0,0,0,0,0,0,0,0,0,0,0,0,0,0,0,0,0,0,0,0,0,0,0],"sum_hessian":[1.8564E4,1.8486E4,7.8E1,1.8426E4,6E1,6.1E1,1.7E1,1.8305E4,1.21E2,4.5E1,1.5E1,1.6E1,4.5E1,1.2E1,5E0,1.8024E4,2.81E2,8.9E1,3.2E1,1.6E1,2.9E1,1.7476E4,5.48E2,1.8E2,1.01E2,6E1,2.9E1,1.6E1,1.6E1,1.6432E4,1.044E3,4.02E2,1.46E2,8.9E1,9.1E1,5.6E1,4.5E1,3E1,3E1],"tree_param":{"num_deleted":"0","num_feature":"8","num_nodes":"39","size_leaf_vector":"1"}},{"base_weights":[3.7515E-1,-7.548546E0,2.0085385E3,-9.062764E0,4.8257944E2,1.3859686E3,3.833837E3,-9.728126E0,9.177864E1,3.2153186E2,6.496126E2,3.4649883E1,4.727074E1,1.6092169E2,8.4980125E1,-1.0079359E1,1.4246824E1,6.6136734E1,1.6102841E2,7.3754187E0,1.13136215E1,1.5206295E1,2.2930136E1,-1.0288977E1,-3.5819285E0,7.314451E0,2.5253319E1,5.3882626E1,2.6316278E0,3.731902E0,5.580991E0,-3.1253624E-1,-2.4680214E-1,-1.456698E-1,6.593329E-3,1.460257E-1,3.5839814E-1,5.87007E-1,9.447397E-1,1.3670164E0,1.8203738E0],"categories":[],"categories_nodes":[],"categories_segments":[],"categories_sizes":[],"default_left":[0,0,0,0,0,0,0,0,0,0,0,0,0,0,0,0,0,0,0,0,0,0,0,0,0,0,0,0,0,0,0,0,0,0,0,0,0,0,0,0,0],"id":23,"left_children":[1,3,5,7,9,11,13,15,17,19,21,-1,-1,-1,-1,23,25,27,29,-1,-1,-1,-1,31,33,35,37,39,-1,-1,-1,-1,-1,-1,-1,-1,-1,-1,-1,-1,-1],"loss_changes":[2.9555014E8,1.3735085E7,7.764186E7,1.2384781E6,1.324446E6,6.3404E5,1.2381488E7,1.54455E5,2.0420925E5,3.770975E4,5.4711E4,0E0,0E0,0E0,0E0,2.456175E4,2.0035086E4,1.9077969E4,6.1688125E3,0E0,0E0,0E0,0E0,4.565125E3,2.741838E3,1.8007139E3,3.0019453E3,6.2596875E2,0E0,0E0,0E0,0E0,0E0,0E0,0E0,0E0,0E0,0E0,0E0,0E0,0E0],"parents":[2147483647,0,0,1,1,2,2,3,3,4,4,5,5,6,6,7,7,8,8,9,9,10,10,15,15,16,16,17,17,18,18,23,23,24,24,25,25,26,26,27,27],"right_children":[2,4,6,8,10,12,14,16,18,20,22,-1,-1,-1,-1,24,26,28,30,-1,-1,-1,-1,32,34,36,38,40,-1,-1,-1,-1,-1,-1,-1,-1,-1,-1,-1,-1,-1],"split_conditions":[1.812E3,4.65E2,4.032E3,1.05E2,8.71E2,2.902E3,7.438017E-2,2.5E1,2.43E2,6.45E2,1.331E3,3.4649883E1,4.727074E1,1.6092169E2,8.4980125E1,8E0,5.2E1,1.61E2,3.5E2,7.3754187E0,1.13136215E1,1.5206295E1,2.2930136E1,3E0,1.8E1,3.9E1,7.5E1,1.28E2,2.6316278E0,3.731902E0,5.580991E0,-3.1253624E-1,-2.4680214E-1,-1.456698E-1,6.593329E-3,1.460257E-1,3.5839814E-1,5.87007E-1,9.447397E-1,1.3670164E0,1.8203738E0],"split_indices":[1,1,1,1,1,1,4,1,1,1,1,0,0,0,0,1,1,1,1,0,0,0,0,1,1,1,1,1,0,0,0,0,0,0,0,0,0,0,0,0,0],"split_type":[0,0,0,0,0,0,0,0,0,0,0,0,0,0,0,0,0,0,0,0,0,0,0,0,0,0,0,0,0,0,0,0,0,0,0,0,0,0,0,0,0],"sum_hessian":[1.8572E4,1.85E4,7.2E1,1.8444E4,5.6E1,5.5E1,1.7E1,1.8324E4,1.2E2,3E1,2.6E1,2.8E1,2.7E1,5E0,1.2E1,1.806E4,2.64E2,8.9E1,3.1E1,1.5E1,1.5E1,1.4E1,1.2E1,1.7495E4,5.65E2,1.63E2,1.01E2,5.9E1,3E1,1.5E1,1.6E1,1.6462E4,1.033E3,4.23E2,1.42E2,1.08E2,5.5E1,5.5E1,4.6E1,3E1,2.9E1],"tree_param":{"num_deleted":"0","num_feature":"8","num_nodes":"41","size_leaf_vector":"1"}},{"base_weights":[4.927112E-1,-7.221263E0,1.8485342E3,-8.600738E0,5.699395E2,1.333055E3,3.7304822E3,-9.2504425E0,1.5245775E2,1.3371016E1,2.2785044E1,3.331685E1,4.559172E1,6.1150032E1,1.294301E2,-9.690081E0,2.9862432E1,1.0053528E2,6.5239277E0,-9.953322E0,-6.679036E-1,1.880242E1,4.9452286E1,2.1270862E0,3.3718696E0,-3.0319735E-1,-2.3288007E-1,-8.188968E-2,1.3835837E-1,4.1232666E-1,7.505704E-1,1.1509237E0,1.6649715E0],"categories":[],"categories_nodes":[],"categories_segments":[],"categories_sizes":[],"default_left":[0,0,0,0,0,0,0,0,0,0,0,0,0,0,0,0,0,0,0,0,0,0,0,0,0,0,0,0,0,0,0,0,0],"id":24,"left_children":[1,3,5,7,9,11,13,15,17,-1,-1,-1,-1,-1,-1,19,21,23,-1,25,27,29,31,-1,-1,-1,-1,-1,-1,-1,-1,-1,-1],"loss_changes":[2.640725E8,1.4692011E7,6.972512E7,1.9272116E6,6.97733E5,8.87272E5,7.013456E6,3.15501E5,2.2790925E5,0E0,0E0,0E0,0E0,0E0,0E0,4.30475E4,4.326964E4,7.1432188E3,0E0,5.83525E3,5.618746E3,3.8068398E3,2.7652969E3,0E0,0E0,0E0,0E0,0E0,0E0,0E0,0E0,0E0,0E0],"parents":[2147483647,0,0,1,1,2,2,3,3,4,4,5,5,6,6,7,7,8,8,15,15,16,16,17,17,19,19,20,20,21,21,22,22],"right_children":[2,4,6,8,10,12,14,16,18,-1,-1,-1,-1,-1,-1,20,22,24,-1,26,28,30,32,-1,-1,-1,-1,-1,-1,-1,-1,-1,-1],"split_conditions":[1.812E3,6.45E2,4.032E3,1.61E2,1.331E3,2.902E3,6.7707E4,4.2E1,3.5E2,1.3371016E1,2.2785044E1,3.331685E1,4.559172E1,6.1150032E1,1.294301E2,1E1,9.1E1,1.98E2,6.5239277E0,3E0,2.3E1,6E1,1.14E2,2.1270862E0,3.3718696E0,-3.0319735E-1,-2.3288007E-1,-8.188968E-2,1.3835837E-1,4.1232666E-1,7.505704E-1,1.1509237E0,1.6649715E0],"split_indices":[1,1,1,1,1,1,0,1,1,0,0,0,0,0,0,1,1,1,0,1,1,1,1,0,0,0,0,0,0,0,0,0,0],"split_type":[0,0,0,0,0,0,0,0,0,0,0,0,0,0,0,0,0,0,0,0,0,0,0,0,0,0,0,0,0,0,0,0,0],"sum_hessian":[1.8522E4,1.8446E4,7.6E1,1.8403E4,4.3E1,6.1E1,1.5E1,1.833E4,7.3E1,2.8E1,1.5E1,3.1E1,3E1,5E0,1E1,1.8127E4,2.03E2,4.2E1,3.1E1,1.7613E4,5.14E2,1.31E2,7.2E1,1.4E1,2.8E1,1.6458E4,1.155E3,3.7E2,1.44E2,7.4E1,5.7E1,2.8E1,4.4E1],"tree_param":{"num_deleted":"0","num_feature":"8","num_nodes":"33","size_leaf_vector":"1"}},{"base_weights":[7.164033E-1,-6.9639044E0,1.8402904E3,-8.530102E0,4.6514056E2,1.2868873E3,3.7177783E3,-9.142119E0,8.709609E1,3.024703E2,1.8694527E1,2.7885096E1,4.149657E1,7.7477646E1,1.491161E2,-9.480406E0,1.4507796E1,6.2583843E1,1.5025102E2,7.016037E0,1.0477346E1,-9.662274E0,-2.426365E0,8.132806E0,2.5005123E1,5.4230263E1,2.798986E0,3.5045435E0,5.2914834E0,-2.9410177E-1,-2.2835499E-1,-1.2011178E-1,1.5760984E-2,1.5673342E-1,3.564175E-1,6.292962E-1,9.7598004E-1,1.2869018E0,1.8229381E0],"categories":[],"categories_nodes":[],"categories_segments":[],"categories_sizes":[],"default_left":[0,0,0,0,0,0,0,0,0,0,0,0,0,0,0,0,0,0,0,0,0,0,0,0,0,0,0,0,0,0,0,0,0,0,0,0,0,0,0],"id":25,"left_children":[1,3,5,7,9,11,13,15,17,19,-1,-1,-1,-1,-1,21,23,25,27,-1,-1,29,31,33,35,37,-1,-1,-1,-1,-1,-1,-1,-1,-1,-1,-1,-1,-1],"loss_changes":[2.616584E8,1.3640885E7,7.521922E7,1.0766608E6,1.379433E6,8.1436E5,1.1339168E7,1.4628162E5,1.7172075E5,2.100625E4,0E0,0E0,0E0,0E0,0E0,2.30815E4,1.706209E4,1.700675E4,7.3524375E3,0E0,0E0,5.005625E3,2.1159028E3,1.7037119E3,2.2591328E3,2.5773906E3,0E0,0E0,0E0,0E0,0E0,0E0,0E0,0E0,0E0,0E0,0E0,0E0,0E0],"parents":[2147483647,0,0,1,1,2,2,3,3,4,4,5,5,6,6,7,7,8,8,9,9,15,15,16,16,17,17,18,18,21,21,22,22,23,23,24,24,25,25],"right_children":[2,4,6,8,10,12,14,16,18,20,-1,-1,-1,-1,-1,22,24,26,28,-1,-1,30,32,34,36,38,-1,-1,-1,-1,-1,-1,-1,-1,-1,-1,-1,-1,-1],"split_conditions":[1.812E3,4.65E2,4.032E3,1.05E2,8.71E2,2.503E3,6.557343E4,2.7E1,2.43E2,6.45E2,1.8694527E1,2.7885096E1,4.149657E1,7.7477646E1,1.491161E2,9E0,5.5E1,1.98E2,3.5E2,7.016037E0,1.0477346E1,3E0,1.8E1,3.9E1,8.1E1,1.28E2,2.798986E0,3.5045435E0,5.2914834E0,-2.9410177E-1,-2.2835499E-1,-1.2011178E-1,1.5760984E-2,1.5673342E-1,3.564175E-1,6.292962E-1,9.7598004E-1,1.2869018E0,1.8229381E0],"split_indices":[1,1,1,1,1,1,2,1,1,1,0,0,0,0,0,1,1,1,1,0,0,1,1,1,1,1,0,0,0,0,0,0,0,0,0,0,0,0,0],"split_type":[0,0,0,0,0,0,0,0,0,0,0,0,0,0,0,0,0,0,0,0,0,0,0,0,0,0,0,0,0,0,0,0,0,0,0,0,0,0,0],"sum_hessian":[1.8518E4,1.8442E4,7.6E1,1.8382E4,6E1,6E1,1.6E1,1.8266E4,1.16E2,3.1E1,2.9E1,1.5E1,4.5E1,1E1,6E0,1.8009E4,2.57E2,8.5E1,3.1E1,1.5E1,1.6E1,1.7556E4,4.53E2,1.61E2,9.6E1,6.9E1,1.6E1,1.6E1,1.5E1,1.6422E4,1.134E3,2.95E2,1.58E2,9.2E1,6.9E1,6.5E1,3.1E1,2.8E1,4.1E1],"tree_param":{"num_deleted":"0","num_feature":"8","num_nodes":"39","size_leaf_vector":"1"}},{"base_weights":[-3.5711092E-1,-6.0594597E0,1.6628336E3,-8.0889225E0,5.747151E2,1.234171E3,2.3546743E3,-8.830895E0,8.5584755E1,6.4502814E2,2.7752353E2,2.7419931E1,4.099005E1,3.0548389E3,9.53678E0,-9.135966E0,1.1657909E1,5.7216576E1,1.6607608E2,4.479253E2,8.3209814E2,1.0979989E2,3.3363303E2,1.7059031E3,1.148551E2,-9.357273E0,-4.3110046E0,5.523399E0,2.1527231E1,2.6990856E1,6.849582E1,1.8953224E2,9.340403E1,3.8006847E0,4.8280103E2,1.1090327E1,9.5866895E2,1.5447589E0,5.1454735E0,1.869674E1,2.3220898E2,9.553333E0,5.575858E1,-2.8406507E-1,-2.1393995E-1,-1.9296157E-1,-4.289919E-2,8.643481E-2,2.8754112E-1,8.694534E-1,5.262596E-1,4.4732973E-1,1.1215137E0,1.3825846E0,2.7624772E0,6.9091263E0,4.2468314E0,3.7988863E0,1.338335E0,6.009275E0,1.5408554E1,3.2266254E1,1.2489492E1,8.882201E0,3.657084E0],"categories":[],"categories_nodes":[],"categories_segments":[],"categories_sizes":[],"default_left":[0,0,0,0,0,0,0,0,0,0,0,0,0,0,0,0,0,0,0,0,0,0,0,0,0,0,0,0,0,0,0,0,0,0,0,0,0,0,0,0,0,0,0,0,0,0,0,0,0,0,0,0,0,0,0,0,0,0,0,0,0,0,0,0,0],"id":26,"left_children":[1,3,5,7,9,11,13,15,17,19,21,-1,-1,23,-1,25,27,29,31,33,35,37,39,41,-1,43,45,47,49,51,53,55,57,-1,59,-1,61,-1,-1,-1,63,-1,-1,-1,-1,-1,-1,-1,-1,-1,-1,-1,-1,-1,-1,-1,-1,-1,-1,-1,-1,-1,-1,-1,-1],"loss_changes":[1.748683E8,2.1662526E7,1.5777616E7,1.2735022E6,1.158362E6,4.861E5,3.1828768E7,1.136725E5,3.1930612E5,1.507754E6,9.5119625E4,0E0,0E0,1.121056E7,0E0,1.90765E4,1.6046199E4,3.4970906E4,4.5367438E4,2.413245E5,1.108826E6,9.160941E3,1.4899725E5,1.103234E6,0E0,4.183125E3,4.800007E3,1.7537217E3,2.521836E3,3.3344727E3,3.6984844E4,2.0206625E4,1.2183766E4,0E0,1.06054E5,0E0,7.56572E5,0E0,0E0,0E0,2.73095E4,0E0,0E0,0E0,0E0,0E0,0E0,0E0,0E0,0E0,0E0,0E0,0E0,0E0,0E0,0E0,0E0,0E0,0E0,0E0,0E0,0E0,0E0,0E0,0E0],"parents":[2147483647,0,0,1,1,2,2,3,3,4,4,5,5,6,6,7,7,8,8,9,9,10,10,13,13,15,15,16,16,17,17,18,18,19,19,20,20,21,21,22,22,23,23,25,25,26,26,27,27,28,28,29,29,30,30,31,31,32,32,34,34,36,36,40,40],"right_children":[2,4,6,8,10,12,14,16,18,20,22,-1,-1,24,-1,26,28,30,32,34,36,38,40,42,-1,44,46,48,50,52,54,56,58,-1,60,-1,62,-1,-1,-1,64,-1,-1,-1,-1,-1,-1,-1,-1,-1,-1,-1,-1,-1,-1,-1,-1,-1,-1,-1,-1,-1,-1,-1,-1],"split_conditions":[3.5510285E4,9.765286E3,4E-2,4.596E3,2.961165E-1,6.557343E4,2E-1,1.415E3,9.661E3,2.5233E4,1.7340288E-1,2.7419931E1,4.099005E1,6.7707E4,9.53678E0,4.411765E-2,2.538E3,8.410351E-2,2.34375E-1,1.4543E4,8E0,4.9515E4,1E0,8E0,1.148551E2,3.067143E2,5.08E2,1.953E3,2E-1,7.7134287E3,3.8204285E3,1.3E1,3.3333334E-1,3.8006847E0,7E0,1.1090327E1,2.3076923E-1,1.5447589E0,5.1454735E0,1.869674E1,2.5233E4,9.553333E0,5.575858E1,-2.8406507E-1,-2.1393995E-1,-1.9296157E-1,-4.289919E-2,8.643481E-2,2.8754112E-1,8.694534E-1,5.262596E-1,4.4732973E-1,1.1215137E0,1.3825846E0,2.7624772E0,6.9091263E0,4.2468314E0,3.7988863E0,1.338335E0,6.009275E0,1.5408554E1,3.2266254E1,1.2489492E1,8.882201E0,3.657084E0],"split_indices":[2,2,4,0,5,2,5,0,0,0,4,0,0,0,0,5,0,4,4,0,7,0,6,7,0,2,0,0,5,2,2,7,5,0,7,0,5,0,0,0,0,0,0,0,0,0,0,0,0,0,0,0,0,0,0,0,0,0,0,0,0,0,0,0,0],"split_type":[0,0,0,0,0,0,0,0,0,0,0,0,0,0,0,0,0,0,0,0,0,0,0,0,0,0,0,0,0,0,0,0,0,0,0,0,0,0,0,0,0,0,0,0,0,0,0,0,0,0,0,0,0,0,0,0,0,0,0,0,0,0,0,0,0],"sum_hessian":[1.8436E4,1.8374E4,6.2E1,1.8311E4,6.3E1,4E1,2.2E1,1.8168E4,1.43E2,5E1,1.3E1,1.4E1,2.6E1,1.6E1,6E0,1.7902E4,2.66E2,1.07E2,3.6E1,2.6E1,2.4E1,4E0,9E0,7E0,9E0,1.7116E4,7.86E2,1.65E2,1.01E2,3E1,7.7E1,2.6E1,1E1,3E0,2.3E1,6E0,1.8E1,3E0,1E0,1E0,8E0,1E0,6E0,1.6296E4,8.2E2,4.52E2,3.34E2,1.01E2,6.4E1,3.3E1,6.8E1,1.5E1,1.5E1,4.1E1,3.6E1,1.2E1,1.4E1,5E0,5E0,3E0,2E1,1.4E1,4E0,4E0,4E0],"tree_param":{"num_deleted":"0","num_feature":"8","num_nodes":"65","size_leaf_vector":"1"}},{"base_weights":[7.2475314E-1,-6.527834E0,1.7597539E3,-8.050268E0,4.3752243E2,1.2123596E3,3.5882183E3,-8.611136E0,8.184776E1,2.859001E2,5.8481323E2,3.0313272E1,4.1417862E1,4.2945195E3,6.770443E1,-8.9323015E0,1.257967E1,5.2145863E1,1.2462132E2,6.698404E0,9.951072E0,1.3808085E1,2.0609259E1,3.7349174E1,1.3485083E2,-9.114036E0,-3.1974616E0,6.5323257E0,2.2193209E1,1.34509E0,6.1855633E1,3.0538654E0,4.8317246E0,-2.7769044E-1,-2.2924274E-1,-1.3130358E-1,8.637365E-3,1.1694558E-1,2.9829E-1,5.254699E-1,8.343568E-1,1.8865001E0,5.2702904E-1],"categories":[],"categories_nodes":[],"categories_segments":[],"categories_sizes":[],"default_left":[0,0,0,0,0,0,0,0,0,0,0,0,0,0,0,0,0,0,0,0,0,0,0,0,0,0,0,0,0,0,0,0,0,0,0,0,0,0,0,0,0,0,0],"id":27,"left_children":[1,3,5,7,9,11,13,15,17,19,21,-1,-1,23,-1,25,27,29,31,-1,-1,-1,-1,-1,-1,33,35,37,39,-1,41,-1,-1,-1,-1,-1,-1,-1,-1,-1,-1,-1,-1],"loss_changes":[2.3612749E8,1.2464919E7,7.17175E7,9.269875E5,1.239755E6,6.43168E5,6.2944E6,1.24371875E5,1.383335E5,2.0586E4,7.8239E4,0E0,0E0,5.18416E5,0E0,1.871625E4,1.5726254E4,2.1237969E3,2.1862562E4,0E0,0E0,0E0,0E0,0E0,0E0,3.58275E3,2.2784136E3,1.4795688E3,2.2724336E3,0E0,1.2419531E2,0E0,0E0,0E0,0E0,0E0,0E0,0E0,0E0,0E0,0E0,0E0,0E0],"parents":[2147483647,0,0,1,1,2,2,3,3,4,4,5,5,6,6,7,7,8,8,9,9,10,10,13,13,15,15,16,16,17,17,18,18,25,25,26,26,27,27,28,28,30,30],"right_children":[2,4,6,8,10,12,14,16,18,20,22,-1,-1,24,-1,26,28,30,32,-1,-1,-1,-1,-1,-1,34,36,38,40,-1,42,-1,-1,-1,-1,-1,-1,-1,-1,-1,-1,-1,-1],"split_conditions":[1.812E3,4.65E2,4.032E3,1.05E2,8.71E2,2.902E3,1.2195122E-1,2.5E1,1.98E2,6.45E2,1.331E3,3.0313272E1,4.1417862E1,6.7707E4,6.770443E1,8E0,5.2E1,1.46E2,3.5E2,6.698404E0,9.951072E0,1.3808085E1,2.0609259E1,3.7349174E1,1.3485083E2,2E0,1.8E1,3.6E1,7.5E1,1.34509E0,2.5233E4,3.0538654E0,4.8317246E0,-2.7769044E-1,-2.2924274E-1,-1.3130358E-1,8.637365E-3,1.1694558E-1,2.9829E-1,5.254699E-1,8.343568E-1,1.8865001E0,5.2702904E-1],"split_indices":[1,1,1,1,1,1,5,1,1,1,1,0,0,0,0,1,1,1,1,0,0,0,0,0,0,1,1,1,1,0,0,0,0,0,0,0,0,0,0,0,0,0,0],"split_type":[0,0,0,0,0,0,0,0,0,0,0,0,0,0,0,0,0,0,0,0,0,0,0,0,0,0,0,0,0,0,0,0,0,0,0,0,0,0,0,0,0,0,0],"sum_hessian":[1.8507E4,1.8432E4,7.5E1,1.837E4,6.2E1,5.9E1,1.6E1,1.8257E4,1.13E2,3.2E1,3E1,3E1,2.9E1,9E0,7E0,1.7985E4,2.72E2,6.8E1,4.5E1,1.6E1,1.6E1,1.6E1,1.4E1,1E0,8E0,1.7432E4,5.53E2,1.68E2,1.04E2,4.2E1,2.6E1,3E1,1.5E1,1.5891E4,1.541E3,4.13E2,1.4E2,9.6E1,7.2E1,5.9E1,4.5E1,2.5E1,1E0],"tree_param":{"num_deleted":"0","num_feature":"8","num_nodes":"43","size_leaf_vector":"1"}},{"base_weights":[5.2687204E-1,-6.498037E0,1.7249009E3,-7.8299775E0,4.301852E2,1.1836658E3,3.50184E3,-8.361925E0,7.9676476E1,2.7451758E2,5.7604865E2,2.5414482E1,3.8086025E1,1.4406168E2,7.679737E1,-8.681217E0,1.1095628E1,5.673338E1,1.3973172E2,6.4494E0,9.47262E0,4.539491E0,1.7585255E1,-8.890433E0,-4.4563646E0,5.7233047E0,2.1514423E1,4.692544E1,7.605334E1,3.2868216E0,4.7785144E0,-2.707779E-1,-2.4027403E-1,-1.71231E-1,-4.8461866E-2,9.850349E-2,2.9104194E-1,5.027183E-1,8.1564367E-1,1.0532552E0,1.4986901E0,6.203073E-1,2.3232396E0],"categories":[],"categories_nodes":[],"categories_segments":[],"categories_sizes":[],"default_left":[0,0,0,0,0,0,0,0,0,0,0,0,0,0,0,0,0,0,0,0,0,0,0,0,0,0,0,0,0,0,0,0,0,0,0,0,0,0,0,0,0,0,0],"id":28,"left_children":[1,3,5,7,9,11,13,15,17,19,21,-1,-1,-1,-1,23,25,27,29,-1,-1,-1,-1,31,33,35,37,39,41,-1,-1,-1,-1,-1,-1,-1,-1,-1,-1,-1,-1,-1,-1],"loss_changes":[2.2391845E8,1.0711287E7,6.798562E7,8.550704E5,1.113412E6,6.29392E5,8.527216E6,1.13446125E5,1.4501431E5,3.3175E3,3.1732E4,0E0,0E0,0E0,0E0,1.58275E4,1.6388938E4,1.196925E4,2.459375E2,0E0,0E0,0E0,0E0,1.970125E3,3.0089785E3,1.8705166E3,2.2434648E3,2.876172E2,3.9714062E2,0E0,0E0,0E0,0E0,0E0,0E0,0E0,0E0,0E0,0E0,0E0,0E0,0E0,0E0],"parents":[2147483647,0,0,1,1,2,2,3,3,4,4,5,5,6,6,7,7,8,8,9,9,10,10,15,15,16,16,17,17,18,18,23,23,24,24,25,25,26,26,27,27,28,28],"right_children":[2,4,6,8,10,12,14,16,18,20,22,-1,-1,-1,-1,24,26,28,30,-1,-1,-1,-1,32,34,36,38,40,42,-1,-1,-1,-1,-1,-1,-1,-1,-1,-1,-1,-1,-1,-1],"split_conditions":[1.812E3,4.65E2,4.032E3,1.05E2,8.71E2,2.503E3,7.438017E-2,2.3E1,2.43E2,6.45E2,7E0,2.5414482E1,3.8086025E1,1.4406168E2,7.679737E1,6E0,5.2E1,1.61E2,3.5E2,6.4494E0,9.47262E0,4.539491E0,1.7585255E1,1E0,1.3E1,3.6E1,7.5E1,1.14E2,1.5645092E-2,3.2868216E0,4.7785144E0,-2.707779E-1,-2.4027403E-1,-1.71231E-1,-4.8461866E-2,9.850349E-2,2.9104194E-1,5.027183E-1,8.1564367E-1,1.0532552E0,1.4986901E0,6.203073E-1,2.3232396E0],"split_indices":[1,1,1,1,1,1,4,1,1,1,7,0,0,0,0,1,1,1,1,0,0,0,0,1,1,1,1,1,4,0,0,0,0,0,0,0,0,0,0,0,0,0,0],"split_type":[0,0,0,0,0,0,0,0,0,0,0,0,0,0,0,0,0,0,0,0,0,0,0,0,0,0,0,0,0,0,0,0,0,0,0,0,0,0,0,0,0,0,0],"sum_hessian":[1.8483E4,1.8409E4,7.4E1,1.8354E4,5.5E1,5.8E1,1.6E1,1.8244E4,1.1E2,2.8E1,2.7E1,1.4E1,4.4E1,5E0,1.1E1,1.795E4,2.94E2,8.1E1,2.9E1,1.4E1,1.4E1,1E0,2.6E1,1.7102E4,8.48E2,1.95E2,9.9E1,5.6E1,2.5E1,1.4E1,1.5E1,1.4815E4,2.287E3,5.88E2,2.6E2,1.22E2,7.3E1,5.6E1,4.3E1,1.4E1,4.2E1,1E0,2.4E1],"tree_param":{"num_deleted":"0","num_feature":"8","num_nodes":"43","size_leaf_vector":"1"}},{"base_weights":[6.634604E-1,-6.084443E0,1.633381E3,-7.4106693E0,5.0082657E2,1.2023057E3,2.955607E3,-7.9172144E0,1.26850395E2,1.1661541E1,6.82394E2,2.6092869E1,1.2864354E3,3.510614E1,1.0146407E2,-8.295127E0,2.734541E1,8.393967E1,5.6005836E0,5.9058304E0,2.1013079E1,1.0462406E1,3.8994617E1,-8.493853E0,1.0850043E0,1.7773716E1,4.2295517E1,1.2982912E0,9.083586E1,-2.5956765E-1,-1.8046719E-1,-4.685812E-2,1.2802118E-1,4.3606406E-1,7.980519E-1,1.4053615E0,9.202544E-1,1.9136912E0,2.9730818E0],"categories":[],"categories_nodes":[],"categories_segments":[],"categories_sizes":[],"default_left":[0,0,0,0,0,0,0,0,0,0,0,0,0,0,0,0,0,0,0,0,0,0,0,0,0,0,0,0,0,0,0,0,0,0,0,0,0,0,0],"id":29,"left_children":[1,3,5,7,9,11,13,15,17,-1,19,-1,21,-1,-1,23,25,27,-1,-1,-1,-1,-1,29,31,33,35,-1,37,-1,-1,-1,-1,-1,-1,-1,-1,-1,-1],"loss_changes":[2.0343558E8,1.2366245E7,3.9764864E7,1.2484301E6,7.11794E5,5.31736E5,9.749664E6,2.437495E5,1.6149362E5,0E0,1.1031E4,0E0,1.1148E5,0E0,0E0,3.37135E4,2.7009234E4,7.8466875E3,0E0,0E0,0E0,0E0,0E0,6.898625E3,3.173918E3,3.0438047E3,2.5283438E3,0E0,1.5038125E3,0E0,0E0,0E0,0E0,0E0,0E0,0E0,0E0,0E0,0E0],"parents":[2147483647,0,0,1,1,2,2,3,3,4,4,5,5,6,6,7,7,8,8,10,10,12,12,15,15,16,16,17,17,23,23,24,24,25,25,26,26,28,28],"right_children":[2,4,6,8,10,12,14,16,18,-1,20,-1,22,-1,-1,24,26,28,-1,-1,-1,-1,-1,30,32,34,36,-1,38,-1,-1,-1,-1,-1,-1,-1,-1,-1,-1],"split_conditions":[1.2798572E3,3.757143E2,3.1641428E3,1.0185714E2,8.315714E2,1E1,2.5094845E-4,2.6285715E1,1.8414285E2,1.1661541E1,2.5094845E-4,2.6092869E1,2.5233E4,3.510614E1,1.0146407E2,8.285714E0,5.2E1,8.410351E-2,5.6005836E0,5.9058304E0,2.1013079E1,1.0462406E1,3.8994617E1,2.142857E0,1.4142858E1,4.357143E1,7.798E3,1.2982912E0,1.1614286E2,-2.5956765E-1,-1.8046719E-1,-4.685812E-2,1.2802118E-1,4.3606406E-1,7.980519E-1,1.4053615E0,9.202544E-1,1.9136912E0,2.9730818E0],"split_indices":[3,3,3,3,3,7,4,3,3,0,4,0,0,0,0,3,3,4,0,0,0,0,0,3,3,3,0,0,3,0,0,0,0,0,0,0,0,0,0],"split_type":[0,0,0,0,0,0,0,0,0,0,0,0,0,0,0,0,0,0,0,0,0,0,0,0,0,0,0,0,0,0,0,0,0,0,0,0,0,0,0],"sum_hessian":[1.8463E4,1.8388E4,7.5E1,1.8341E4,4.7E1,5.8E1,1.7E1,1.8273E4,6.8E1,3.1E1,1.6E1,1.4E1,4.4E1,4E0,1.3E1,1.808E4,1.93E2,4.1E1,2.7E1,1E0,1.5E1,1E0,4.3E1,1.7705E4,3.75E2,1.19E2,7.4E1,7E0,3.4E1,1.6639E4,1.066E3,2.05E2,1.7E2,8.9E1,3E1,5.1E1,2.3E1,1E1,2.4E1],"tree_param":{"num_deleted":"0","num_feature":"8","num_nodes":"39","size_leaf_vector":"1"}},{"base_weights":[7.266673E-1,-5.1928678E0,1.6333589E3,-7.18773E0,5.431145E2,1.1280602E3,2.3401697E3,-7.818515E0,7.764073E1,3.4829782E2,7.011983E2,2.1971167E1,3.563955E1,1.5293226E3,1.3315202E2,-8.090264E0,1.0898796E1,5.2276814E1,1.4409346E2,3.3495502E0,3.689284E2,7.4373474E2,5.249204E0,1.9808011E3,3.433938E2,-8.284294E0,-3.8543172E0,6.6200323E0,2.3764894E1,2.4757065E1,6.3717316E1,1.5929115E2,3.902355E1,4.1345883E2,2.0035362E2,9.789819E0,8.2440576E2,1.3984723E1,2.177965E3,5.3630705E0,1.2665104E1,-2.5158164E-1,-1.8776214E-1,-1.754654E-1,-5.077864E-2,8.6366884E-2,3.033863E-1,9.588148E-1,5.244499E-1,3.4241444E-1,9.457549E-1,1.2826351E0,2.5396724E0,6.407108E0,3.9689803E0,-1.8368596E-2,1.4121951E0,8.36338E0,1.5073803E1,2.0748775E0,7.9570713E0,2.8506985E1,1.546429E1,1.7863327E1,6.780664E1],"categories":[],"categories_nodes":[],"categories_segments":[],"categories_sizes":[],"default_left":[0,0,0,0,0,0,0,0,0,0,0,0,0,0,0,0,0,0,0,0,0,0,0,0,0,0,0,0,0,0,0,0,0,0,0,0,0,0,0,0,0,0,0,0,0,0,0,0,0,0,0,0,0,0,0,0,0,0,0,0,0,0,0,0,0],"id":30,"left_children":[1,3,5,7,9,11,13,15,17,19,21,-1,-1,23,-1,25,27,29,31,-1,33,35,-1,37,39,41,43,45,47,49,51,53,55,57,59,-1,61,-1,63,-1,-1,-1,-1,-1,-1,-1,-1,-1,-1,-1,-1,-1,-1,-1,-1,-1,-1,-1,-1,-1,-1,-1,-1,-1,-1],"loss_changes":[1.7923522E8,2.0216192E7,2.1289248E7,9.858589E5,1.819198E6,1.02124E5,3.9148544E7,9.3057875E4,2.2169544E5,1.1503725E5,6.75678E5,0E0,0E0,1.0563652E7,0E0,1.4776125E4,1.4266041E4,2.9906531E4,5.286625E4,0E0,1.3485675E5,8.42172E5,0E0,3.464224E6,1.53088125E4,3.498375E3,3.4005508E3,2.5581934E3,2.7884414E3,2.4397383E3,2.7105562E4,1.8627688E4,1.9431445E3,1.236305E5,4.975122E4,0E0,5.59714E5,0E0,3.46408E5,0E0,0E0,0E0,0E0,0E0,0E0,0E0,0E0,0E0,0E0,0E0,0E0,0E0,0E0,0E0,0E0,0E0,0E0,0E0,0E0,0E0,0E0,0E0,0E0,0E0,0E0],"parents":[2147483647,0,0,1,1,2,2,3,3,4,4,5,5,6,6,7,7,8,8,9,9,10,10,13,13,15,15,16,16,17,17,18,18,20,20,21,21,23,23,24,24,25,25,26,26,27,27,28,28,29,29,30,30,31,31,32,32,33,33,34,34,36,36,38,38],"right_children":[2,4,6,8,10,12,14,16,18,20,22,-1,-1,24,-1,26,28,30,32,-1,34,36,-1,38,40,42,44,46,48,50,52,54,56,58,60,-1,62,-1,64,-1,-1,-1,-1,-1,-1,-1,-1,-1,-1,-1,-1,-1,-1,-1,-1,-1,-1,-1,-1,-1,-1,-1,-1,-1,-1],"split_conditions":[3.5510285E4,9.765286E3,3.3333335E-2,4.596E3,1.8302143E4,9E0,6.557343E4,1.415E3,9.661E3,1.4543E4,3.3333334E-1,2.1971167E1,3.563955E1,2E-1,1.3315202E2,4.411765E-2,2.998E3,8.410351E-2,2.857143E-1,3.3495502E0,2.961165E-1,8E0,5.249204E0,4E-2,7.978723E-2,3.067143E2,4.35E2,1.953E3,1.6049382E-1,1.2E1,3.8204285E3,1.2E1,1.770905E-1,1.2230216E-1,3E0,9.789819E0,2.3076923E-1,1.3984723E1,4.9515E4,5.3630705E0,1.2665104E1,-2.5158164E-1,-1.8776214E-1,-1.754654E-1,-5.077864E-2,8.6366884E-2,3.033863E-1,9.588148E-1,5.244499E-1,3.4241444E-1,9.457549E-1,1.2826351E0,2.5396724E0,6.407108E0,3.9689803E0,-1.8368596E-2,1.4121951E0,8.36338E0,1.5073803E1,2.0748775E0,7.9570713E0,2.8506985E1,1.546429E1,1.7863327E1,6.780664E1],"split_indices":[2,2,4,0,2,7,2,0,0,0,5,0,0,5,0,5,0,4,4,0,5,7,0,4,4,2,0,0,4,7,2,7,5,4,6,0,5,0,0,0,0,0,0,0,0,0,0,0,0,0,0,0,0,0,0,0,0,0,0,0,0,0,0,0,0],"split_type":[0,0,0,0,0,0,0,0,0,0,0,0,0,0,0,0,0,0,0,0,0,0,0,0,0,0,0,0,0,0,0,0,0,0,0,0,0,0,0,0,0,0,0,0,0,0,0,0,0,0,0,0,0,0,0,0,0,0,0,0,0,0,0,0,0],"sum_hessian":[1.8544E4,1.8478E4,6.6E1,1.8412E4,6.6E1,4E1,2.6E1,1.8277E4,1.35E2,3.1E1,3.5E1,7E0,3.3E1,2E1,6E0,1.8016E4,2.61E2,9.9E1,3.6E1,3E0,2.8E1,3.2E1,3E0,1.4E1,6E0,1.7226E4,7.9E2,1.97E2,6.4E1,3E1,6.9E1,3.1E1,5E0,2.1E1,7E0,6E0,2.6E1,2E0,1.2E1,3E0,3E0,1.6399E4,8.27E2,4.1E2,3.8E2,9.6E1,1.01E2,2.6E1,3.8E1,1.1E1,1.9E1,3.6E1,3.3E1,8E0,2.3E1,1E0,4E0,1E1,1.1E1,3E0,4E0,1.7E1,9E0,1E0,1.1E1],"tree_param":{"num_deleted":"0","num_feature":"8","num_nodes":"65","size_leaf_vector":"1"}},{"base_weights":[-5.7240643E-2,-5.777913E0,1.4884464E3,-6.9415364E0,4.70919E2,1.0753414E3,2.9590151E3,-7.4581213E0,1.1958345E2,1.0875396E1,1.934242E1,2.6662985E1,3.74919E1,5.2014545E1,1.07494995E2,-7.834811E0,2.2795074E1,7.94557E1,5.3137965E0,-8.049541E0,-6.042823E-1,1.469307E1,3.9238472E1,5.7989697E1,2.6391554E0,-2.445595E-1,-1.7810653E-1,-8.520212E-2,7.49424E-2,3.266542E-1,5.902918E-1,1.2090683E0,3.163897E-1,1.9094237E0,9.843938E-1],"categories":[],"categories_nodes":[],"categories_segments":[],"categories_sizes":[],"default_left":[0,0,0,0,0,0,0,0,0,0,0,0,0,0,0,0,0,0,0,0,0,0,0,0,0,0,0,0,0,0,0,0,0,0,0],"id":31,"left_children":[1,3,5,7,9,11,13,15,17,-1,-1,-1,-1,-1,-1,19,21,23,-1,25,27,29,31,33,-1,-1,-1,-1,-1,-1,-1,-1,-1,-1,-1],"loss_changes":[1.5791523E8,1.0250719E7,3.995048E7,1.2054932E6,6.14251E5,7.43872E5,5.258064E6,2.0936494E5,1.5910688E5,0E0,0E0,0E0,0E0,0E0,0E0,2.8145625E4,2.9532188E4,3.3076875E3,0E0,3.762375E3,3.6416777E3,2.6865625E3,1.8336484E3,1.9061719E2,0E0,0E0,0E0,0E0,0E0,0E0,0E0,0E0,0E0,0E0,0E0],"parents":[2147483647,0,0,1,1,2,2,3,3,4,4,5,5,6,6,7,7,8,8,15,15,16,16,17,17,19,19,20,20,21,21,22,22,23,23],"right_children":[2,4,6,8,10,12,14,16,18,-1,-1,-1,-1,-1,-1,20,22,24,-1,26,28,30,32,34,-1,-1,-1,-1,-1,-1,-1,-1,-1,-1,-1],"split_conditions":[1.812E3,6.45E2,4.032E3,1.61E2,1.331E3,2.902E3,6.7707E4,3.9E1,3.5E2,1.0875396E1,1.934242E1,2.6662985E1,3.74919E1,5.2014545E1,1.07494995E2,1E1,9.1E1,1.98E2,5.3137965E0,4E0,2E1,6E1,1.4543E4,7.798E3,2.6391554E0,-2.445595E-1,-1.7810653E-1,-8.520212E-2,7.49424E-2,3.266542E-1,5.902918E-1,1.2090683E0,3.163897E-1,1.9094237E0,9.843938E-1],"split_indices":[1,1,1,1,1,1,0,1,1,0,0,0,0,0,0,1,1,1,0,1,1,1,0,0,0,0,0,0,0,0,0,0,0,0,0],"split_type":[0,0,0,0,0,0,0,0,0,0,0,0,0,0,0,0,0,0,0,0,0,0,0,0,0,0,0,0,0,0,0,0,0,0,0],"sum_hessian":[1.8543E4,1.8473E4,7E1,1.8429E4,4.4E1,5.6E1,1.4E1,1.8355E4,7.4E1,2.9E1,1.5E1,3E1,2.6E1,6E0,8E0,1.813E4,2.25E2,4.5E1,2.9E1,1.7607E4,5.23E2,1.52E2,7.3E1,1.5E1,3E1,1.679E4,8.17E2,3.04E2,2.19E2,8.8E1,6.4E1,7E1,3E0,1.1E1,4E0],"tree_param":{"num_deleted":"0","num_feature":"8","num_nodes":"35","size_leaf_vector":"1"}},{"base_weights":[8.3473635E-1,-5.6224604E0,1.5313452E3,-6.7748227E0,4.4666455E2,1.0565491E3,3.0553015E3,-7.270907E0,1.16459595E2,1.0659645E1,1.8043022E1,2.6182596E1,3.6521393E1,6.342626E1,1.2696395E2,-7.6070595E0,2.2115984E1,7.9269806E1,5.1430335E0,-7.8083553E0,-7.354956E-1,1.3980551E1,3.865981E1,5.5286373E1,2.6410458E0,-2.378786E-1,-1.8365653E-1,-8.515293E-2,6.9397874E-2,3.1149492E-1,5.641297E-1,1.1942912E0,3.0927092E-1,1.8367779E0,9.34862E-1],"categories":[],"categories_nodes":[],"categories_segments":[],"categories_sizes":[],"default_left":[0,0,0,0,0,0,0,0,0,0,0,0,0,0,0,0,0,0,0,0,0,0,0,0,0,0,0,0,0,0,0,0,0,0,0],"id":32,"left_children":[1,3,5,7,9,11,13,15,17,-1,-1,-1,-1,-1,-1,19,21,23,-1,25,27,29,31,33,-1,-1,-1,-1,-1,-1,-1,-1,-1,-1,-1],"loss_changes":[1.8348293E8,9.638944E6,5.3210256E7,1.1282921E6,4.50743E5,7.40688E5,1.098752E7,1.8162594E5,1.3770381E5,0E0,0E0,0E0,0E0,0E0,0E0,2.511625E4,2.7454477E4,4.8027812E3,0E0,3.550125E3,3.3276409E3,2.2515195E3,1.8064297E3,2.4139062E2,0E0,0E0,0E0,0E0,0E0,0E0,0E0,0E0,0E0,0E0,0E0],"parents":[2147483647,0,0,1,1,2,2,3,3,4,4,5,5,6,6,7,7,8,8,15,15,16,16,17,17,19,19,20,20,21,21,22,22,23,23],"right_children":[2,4,6,8,10,12,14,16,18,-1,-1,-1,-1,-1,-1,20,22,24,-1,26,28,30,32,34,-1,-1,-1,-1,-1,-1,-1,-1,-1,-1,-1],"split_conditions":[1.812E3,6.45E2,4.032E3,1.61E2,1.331E3,2.902E3,6.557343E4,3.9E1,3.5E2,1.0659645E1,1.8043022E1,2.6182596E1,3.6521393E1,6.342626E1,1.2696395E2,1E1,9.1E1,1.98E2,5.1430335E0,3E0,2E1,6E1,9.765286E3,7.798E3,2.6410458E0,-2.378786E-1,-1.8365653E-1,-8.515293E-2,6.9397874E-2,3.1149492E-1,5.641297E-1,1.1942912E0,3.0927092E-1,1.8367779E0,9.34862E-1],"split_indices":[1,1,1,1,1,1,2,1,1,0,0,0,0,0,0,1,1,1,0,1,1,1,2,0,0,0,0,0,0,0,0,0,0,0,0],"split_type":[0,0,0,0,0,0,0,0,0,0,0,0,0,0,0,0,0,0,0,0,0,0,0,0,0,0,0,0,0,0,0,0,0,0,0],"sum_hessian":[1.8564E4,1.8487E4,7.7E1,1.8441E4,4.6E1,6E1,1.7E1,1.8368E4,7.3E1,3.1E1,1.5E1,3.1E1,2.9E1,1.1E1,6E0,1.8161E4,2.07E2,4.5E1,2.8E1,1.7644E4,5.17E2,1.4E2,6.7E1,1.4E1,3.1E1,1.646E4,1.184E3,3.06E2,2.11E2,8.2E1,5.8E1,6.4E1,3E0,1E1,4E0],"tree_param":{"num_deleted":"0","num_feature":"8","num_nodes":"35","size_leaf_vector":"1"}},{"base_weights":[1.5688369E-1,-5.4337087E0,1.4148043E3,-6.682136E0,3.7777853E2,1.0321986E3,2.614435E3,-7.1760707E0,6.682382E1,2.4336992E2,5.1306464E2,8.5344763E2,3.5260693E1,9.6787575E1,5.590612E1,-7.421751E0,1.2494905E1,4.859528E1,1.1935385E2,5.784889E0,8.29864E0,3.826603E0,1.5668322E1,1.0893577E1,2.6289581E1,-7.581299E0,-1.7073702E0,8.344551E0,2.0112091E1,3.674176E1,5.9907757E1,2.7708437E0,4.0844955E0,-2.3150392E-1,-1.8796016E-1,-9.517119E-2,2.2226721E-2,1.8005832E-1,3.3730623E-1,6.437046E-1,-1.2243782E-1,1.1137986E0,2.7979854E-1,1.5688289E0,2.1646783E0],"categories":[],"categories_nodes":[],"categories_segments":[],"categories_sizes":[],"default_left":[0,0,0,0,0,0,0,0,0,0,0,0,0,0,0,0,0,0,0,0,0,0,0,0,0,0,0,0,0,0,0,0,0,0,0,0,0,0,0,0,0,0,0,0,0],"id":33,"left_children":[1,3,5,7,9,11,13,15,17,19,21,23,-1,-1,-1,25,27,29,31,-1,-1,-1,-1,-1,-1,33,35,37,39,41,43,-1,-1,-1,-1,-1,-1,-1,-1,-1,-1,-1,-1,-1,-1],"loss_changes":[1.4666693E8,8.839766E6,3.0807328E7,6.690024E5,9.66153E5,4.55504E5,1.797768E6,8.848894E4,1.1197819E5,4.36375E2,3.63795E4,7.016E3,0E0,0E0,0E0,1.645825E4,6.9769414E3,1.0269484E4,1.47925E3,0E0,0E0,0E0,0E0,0E0,0E0,3.0854375E3,1.7670114E3,9.3761426E2,2.6577188E3,1.601836E2,5.162031E2,0E0,0E0,0E0,0E0,0E0,0E0,0E0,0E0,0E0,0E0,0E0,0E0,0E0,0E0],"parents":[2147483647,0,0,1,1,2,2,3,3,4,4,5,5,6,6,7,7,8,8,9,9,10,10,11,11,15,15,16,16,17,17,18,18,25,25,26,26,27,27,28,28,29,29,30,30],"right_children":[2,4,6,8,10,12,14,16,18,20,22,24,-1,-1,-1,26,28,30,32,-1,-1,-1,-1,-1,-1,34,36,38,40,42,44,-1,-1,-1,-1,-1,-1,-1,-1,-1,-1,-1,-1,-1,-1],"split_conditions":[1.812E3,4.65E2,4.032E3,1.05E2,8.71E2,2.902E3,1.2195122E-1,3E1,2.43E2,6.45E2,7E0,2.5233E4,3.5260693E1,9.6787575E1,5.590612E1,9E0,6E1,1.46E2,3.5E2,5.784889E0,8.29864E0,3.826603E0,1.5668322E1,1.0893577E1,2.6289581E1,2E0,1.8E1,4.4E1,9.661E3,2.5233E4,1.98E2,2.7708437E0,4.0844955E0,-2.3150392E-1,-1.8796016E-1,-9.517119E-2,2.2226721E-2,1.8005832E-1,3.3730623E-1,6.437046E-1,-1.2243782E-1,1.1137986E0,2.7979854E-1,1.5688289E0,2.1646783E0],"split_indices":[1,1,1,1,1,1,5,1,1,1,7,0,0,0,0,1,1,1,1,0,0,0,0,0,0,1,1,1,0,0,1,0,0,0,0,0,0,0,0,0,0,0,0,0,0],"split_type":[0,0,0,0,0,0,0,0,0,0,0,0,0,0,0,0,0,0,0,0,0,0,0,0,0,0,0,0,0,0,0,0,0,0,0,0,0,0,0,0,0,0,0,0,0],"sum_hessian":[1.8543E4,1.8471E4,7.2E1,1.8412E4,5.9E1,5.6E1,1.6E1,1.829E4,1.22E2,3.1E1,2.8E1,2.8E1,2.8E1,7E0,9E0,1.8065E4,2.25E2,9.2E1,3E1,1.5E1,1.6E1,1E0,2.7E1,2E0,2.6E1,1.7574E4,4.91E2,1.47E2,7.8E1,4.7E1,4.5E1,1.4E1,1.6E1,1.5929E4,1.645E3,3.07E2,1.84E2,8.3E1,6.4E1,7.4E1,4E0,4.6E1,1E0,3.1E1,1.4E1],"tree_param":{"num_deleted":"0","num_feature":"8","num_nodes":"45","size_leaf_vector":"1"}},{"base_weights":[5.3274107E-1,-5.304438E0,1.4056183E3,-6.353568E0,4.259127E2,1.0156353E3,2.7222852E3,-6.8200874E0,1.0984513E2,9.865567E0,1.7438444E1,2.4982782E1,3.4367027E1,5.755551E1,1.1628322E2,-7.153109E0,2.0759369E1,7.067078E1,4.857121E0,-7.345823E0,-6.129802E-1,1.3458064E1,3.5892273E1,5.1945755E1,2.3854675E0,-2.2324698E-1,-1.6202302E-1,-7.3841676E-2,7.3467605E-2,3.238923E-1,5.7723033E-1,1.107251E0,2.8936586E-1,1.7632604E0,8.888686E-1],"categories":[],"categories_nodes":[],"categories_segments":[],"categories_sizes":[],"default_left":[0,0,0,0,0,0,0,0,0,0,0,0,0,0,0,0,0,0,0,0,0,0,0,0,0,0,0,0,0,0,0,0,0,0,0],"id":34,"left_children":[1,3,5,7,9,11,13,15,17,-1,-1,-1,-1,-1,-1,19,21,23,-1,25,27,29,31,33,-1,-1,-1,-1,-1,-1,-1,-1,-1,-1,-1],"loss_changes":[1.5264997E8,8.3879935E6,3.677291E7,1.0031263E6,4.874525E5,4.95468E5,8.32952E6,1.6930962E5,1.3947181E5,0E0,0E0,0E0,0E0,0E0,0E0,2.2933E4,2.382475E4,3.1567656E3,0E0,3.251875E3,2.9603623E3,2.1010957E3,1.5375234E3,8.4959766E2,0E0,0E0,0E0,0E0,0E0,0E0,0E0,0E0,0E0,0E0,0E0],"parents":[2147483647,0,0,1,1,2,2,3,3,4,4,5,5,6,6,7,7,8,8,15,15,16,16,17,17,19,19,20,20,21,21,22,22,23,23],"right_children":[2,4,6,8,10,12,14,16,18,-1,-1,-1,-1,-1,-1,20,22,24,-1,26,28,30,32,34,-1,-1,-1,-1,-1,-1,-1,-1,-1,-1,-1],"split_conditions":[1.812E3,6.45E2,4.032E3,1.61E2,1.331E3,2.902E3,6.557343E4,3.9E1,3.5E2,9.865567E0,1.7438444E1,2.4982782E1,3.4367027E1,5.755551E1,1.1628322E2,1E1,9.1E1,1.98E2,4.857121E0,4E0,2.1E1,6.7E1,9.765286E3,7.798E3,2.3854675E0,-2.2324698E-1,-1.6202302E-1,-7.3841676E-2,7.3467605E-2,3.238923E-1,5.7723033E-1,1.107251E0,2.8936586E-1,1.7632604E0,8.888686E-1],"split_indices":[1,1,1,1,1,1,2,1,1,0,0,0,0,0,0,1,1,1,0,1,1,1,2,0,0,0,0,0,0,0,0,0,0,0,0],"split_type":[0,0,0,0,0,0,0,0,0,0,0,0,0,0,0,0,0,0,0,0,0,0,0,0,0,0,0,0,0,0,0,0,0,0,0],"sum_hessian":[1.861E4,1.8534E4,7.6E1,1.849E4,4.4E1,6E1,1.6E1,1.8417E4,7.3E1,2.9E1,1.5E1,2.8E1,3.2E1,1.1E1,5E0,1.8198E4,2.19E2,4.3E1,3E1,1.7677E4,5.21E2,1.49E2,7E1,1.6E1,2.7E1,1.6845E4,8.32E2,3.25E2,1.96E2,1.04E2,4.5E1,6.7E1,3E0,1.1E1,5E0],"tree_param":{"num_deleted":"0","num_feature":"8","num_nodes":"35","size_leaf_vector":"1"}},{"base_weights":[2.1641208E-1,-5.0376973E0,1.3621378E3,-6.1496816E0,4.2033163E2,1.0044897E3,2.630391E3,-6.6508975E0,9.797951E1,9.810126E0,5.865487E2,9.170954E2,4.1060795E1,2.8095802E1,2.9758135E3,-6.937531E0,1.8641619E1,6.6346275E1,1.5692554E2,4.9643626E0,1.8107643E1,1.0176049E1,2.8034086E1,1.2316687E2,5.69323E1,-7.118116E0,-9.72311E-1,1.183913E1,3.052387E1,1.399764E0,7.599834E1,2.20037E0,1.6349568E2,-2.1729532E-1,-1.6949956E-1,-7.406836E-2,7.7579446E-2,2.574111E-1,4.7546768E-1,8.3477056E-1,1.3502904E0,9.240557E-1,2.3296094E0,5.0581765E0,1.9923671E0],"categories":[],"categories_nodes":[],"categories_segments":[],"categories_sizes":[],"default_left":[0,0,0,0,0,0,0,0,0,0,0,0,0,0,0,0,0,0,0,0,0,0,0,0,0,0,0,0,0,0,0,0,0,0,0,0,0,0,0,0,0,0,0,0,0],"id":35,"left_children":[1,3,5,7,9,11,13,15,17,-1,19,21,-1,-1,23,25,27,29,31,-1,-1,-1,-1,-1,-1,33,35,37,39,-1,41,-1,43,-1,-1,-1,-1,-1,-1,-1,-1,-1,-1,-1,-1],"loss_changes":[1.3220098E8,8.707749E6,2.9562568E7,9.5872606E5,5.52801E5,5.59048E5,5.989544E6,1.3258088E5,1.5367812E5,0E0,1.49155E4,1.75008E5,0E0,0E0,6.824088E6,1.9454312E4,1.6208539E4,7.6655E3,4.48225E3,0E0,0E0,0E0,0E0,0E0,0E0,3.1785625E3,2.8395312E3,1.5888496E3,1.6398984E3,0E0,4.5104688E2,0E0,2.197625E3,0E0,0E0,0E0,0E0,0E0,0E0,0E0,0E0,0E0,0E0,0E0,0E0],"parents":[2147483647,0,0,1,1,2,2,3,3,4,4,5,5,6,6,7,7,8,8,10,10,11,11,14,14,15,15,16,16,17,17,18,18,25,25,26,26,27,27,28,28,30,30,32,32],"right_children":[2,4,6,8,10,12,14,16,18,-1,20,22,-1,-1,24,26,28,30,32,-1,-1,-1,-1,-1,-1,34,36,38,40,-1,42,-1,44,-1,-1,-1,-1,-1,-1,-1,-1,-1,-1,-1,-1],"split_conditions":[1.2798572E3,3.757143E2,3.1641428E3,9.085714E1,8.315714E2,1.3472044E-1,2.5094845E-4,2.2428572E1,1.8414285E2,9.810126E0,2.5094845E-4,2.5233E4,4.1060795E1,2.8095802E1,7.438017E-2,6.142857E0,4.857143E1,1.770905E-1,7.438017E-2,4.9643626E0,1.8107643E1,1.0176049E1,2.8034086E1,1.2316687E2,5.69323E1,1.2857143E0,1.3142858E1,3.342857E1,3.6363637E-1,1.399764E0,9.0022504E-2,2.20037E0,2.45204E-1,-2.1729532E-1,-1.6949956E-1,-7.406836E-2,7.7579446E-2,2.574111E-1,4.7546768E-1,8.3477056E-1,1.3502904E0,9.240557E-1,2.3296094E0,5.0581765E0,1.9923671E0],"split_indices":[3,3,3,3,3,4,4,3,3,0,4,0,0,0,4,3,3,5,4,0,0,0,0,0,0,3,3,3,5,0,4,0,4,0,0,0,0,0,0,0,0,0,0,0,0],"split_type":[0,0,0,0,0,0,0,0,0,0,0,0,0,0,0,0,0,0,0,0,0,0,0,0,0,0,0,0,0,0,0,0,0,0,0,0,0,0,0,0,0,0,0,0,0],"sum_hessian":[1.8473E4,1.8403E4,7E1,1.8356E4,4.7E1,5.6E1,1.4E1,1.8269E4,8.7E1,3.2E1,1.5E1,4.8E1,8E0,3E0,1.1E1,1.8065E4,2.04E2,5.8E1,2.9E1,1E0,1.4E1,2E0,4.6E1,4E0,7E0,1.7534E4,5.31E2,1.31E2,7.3E1,2.1E1,3.7E1,3E0,2.6E1,1.6154E4,1.38E3,3.74E2,1.57E2,7.4E1,5.7E1,6.4E1,9E0,2E0,3.5E1,2.4E1,2E0],"tree_param":{"num_deleted":"0","num_feature":"8","num_nodes":"45","size_leaf_vector":"1"}},{"base_weights":[9.0813404E-1,-4.389858E0,1.5511029E3,-5.9579816E0,4.7592133E2,3.0744787E1,2.7159104E3,-6.414013E0,1.0539917E2,3.1261948E2,1.8864075E1,1.20327324E2,1.9669166E3,-6.711225E0,2.1951849E1,6.9138245E1,1.5748596E2,7.533934E0,1.0843949E1,1.7501814E1,6.0853947E1,-6.9165764E0,-1.4158653E-1,1.3418975E1,3.4299843E1,5.0393784E1,2.2974763E0,1.0327826E0,4.816269E0,-2.1270837E-1,-1.7909354E-1,-5.417871E-2,1.1158208E-1,4.2423287E-1,-2.9923904E-1,7.9463977E-1,1.1696557E0,1.6668143E0,8.374487E-1],"categories":[],"categories_nodes":[],"categories_segments":[],"categories_sizes":[],"default_left":[0,0,0,0,0,0,0,0,0,0,0,0,0,0,0,0,0,0,0,0,0,0,0,0,0,0,0,0,0,0,0,0,0,0,0,0,0,0,0],"id":36,"left_children":[1,3,5,7,9,-1,11,13,15,17,-1,-1,19,21,23,25,27,-1,-1,-1,-1,29,31,33,35,37,-1,-1,-1,-1,-1,-1,-1,-1,-1,-1,-1,-1,-1],"loss_changes":[1.5191294E8,1.3887094E7,3.583635E7,9.3380156E5,1.30137E6,0E0,1.0539872E7,1.54437E5,1.3076531E5,2.33125E3,0E0,0E0,8.756E3,2.4433625E4,1.955886E4,2.5595312E3,5.7565625E3,0E0,0E0,0E0,0E0,2.8460625E3,3.5410815E3,2.0668555E3,1.7875703E3,3.0728906E2,0E0,0E0,0E0,0E0,0E0,0E0,0E0,0E0,0E0,0E0,0E0,0E0,0E0],"parents":[2147483647,0,0,1,1,2,2,3,3,4,4,6,6,7,7,8,8,9,9,12,12,13,13,14,14,15,15,16,16,21,21,22,22,23,23,24,24,25,25],"right_children":[2,4,6,8,10,-1,12,14,16,18,-1,-1,20,22,24,26,28,-1,-1,-1,-1,30,32,34,36,38,-1,-1,-1,-1,-1,-1,-1,-1,-1,-1,-1,-1,-1],"split_conditions":[2.503E3,6.45E2,4.032E3,1.61E2,1.331E3,3.0744787E1,7.438017E-2,4.4E1,3.5E2,8.71E2,1.8864075E1,1.20327324E2,4.9515E4,1E1,9.1E1,1.98E2,7.438017E-2,7.533934E0,1.0843949E1,1.7501814E1,6.0853947E1,1E0,2.3E1,1.4543E4,1.14E2,7.798E3,2.2974763E0,1.0327826E0,4.816269E0,-2.1270837E-1,-1.7909354E-1,-5.417871E-2,1.1158208E-1,4.2423287E-1,-2.9923904E-1,7.9463977E-1,1.1696557E0,1.6668143E0,8.374487E-1],"split_indices":[1,1,1,1,1,0,4,1,1,1,0,0,0,1,1,1,4,0,0,0,0,1,1,0,1,0,0,0,0,0,0,0,0,0,0,0,0,0,0],"split_type":[0,0,0,0,0,0,0,0,0,0,0,0,0,0,0,0,0,0,0,0,0,0,0,0,0,0,0,0,0,0,0,0,0,0,0,0,0,0,0],"sum_hessian":[1.8495E4,1.8433E4,6.2E1,1.8374E4,5.9E1,4.4E1,1.8E1,1.83E4,7.4E1,3E1,2.9E1,5E0,1.3E1,1.8111E4,1.89E2,4.5E1,2.9E1,1.6E1,1.4E1,1E0,1.2E1,1.7562E4,5.49E2,1.13E2,7.6E1,1.5E1,3E1,1E0,2.8E1,1.4834E4,2.728E3,3.84E2,1.65E2,1.1E2,3E0,3.1E1,4.5E1,1.1E1,4E0],"tree_param":{"num_deleted":"0","num_feature":"8","num_nodes":"39","size_leaf_vector":"1"}},{"base_weights":[4.4510698E-1,-4.312682E0,1.5174338E3,-5.7761593E0,4.6094565E2,2.9838469E1,2.6239956E3,-6.166846E0,1.1398078E2,9.112337E0,1.7926256E1,1.2265702E2,5.7405174E1,-6.4850554E0,2.5858736E1,2.2199583E0,1.489964E2,-6.6665316E0,1.7532921E0,1.7960905E1,4.0727787E1,3.4927847E0,5.0691104E0,-2.0381458E-1,-1.37088E-1,-5.4771354E-4,1.9650051E-1,5.6062645E-1,-2.335092E-1,1.373807E0,9.239669E-1],"categories":[],"categories_nodes":[],"categories_segments":[],"categories_sizes":[],"default_left":[0,0,0,0,0,0,0,0,0,0,0,0,0,0,0,0,0,0,0,0,0,0,0,0,0,0,0,0,0,0,0],"id":37,"left_children":[1,3,5,7,9,-1,11,13,15,-1,-1,-1,-1,17,19,-1,21,23,25,27,29,-1,-1,-1,-1,-1,-1,-1,-1,-1,-1],"loss_changes":[1.3389139E8,1.2594457E7,3.0944904E7,8.63275E5,1.063938E6,0E0,1.0906632E7,1.87445E5,7.29745E4,0E0,0E0,0E0,0E0,2.7217438E4,2.0523922E4,0E0,4.946875E2,4.721375E3,3.3396902E3,2.3903086E3,1.7080547E3,0E0,0E0,0E0,0E0,0E0,0E0,0E0,0E0,0E0,0E0],"parents":[2147483647,0,0,1,1,2,2,3,3,4,4,6,6,7,7,8,8,13,13,14,14,16,16,17,17,18,18,19,19,20,20],"right_children":[2,4,6,8,10,-1,12,14,16,-1,-1,-1,-1,18,20,-1,22,24,26,28,30,-1,-1,-1,-1,-1,-1,-1,-1,-1,-1],"split_conditions":[2.503E3,6.45E2,4.032E3,1.98E2,8.315714E2,2.9838469E1,7.438017E-2,5.2E1,3.5E2,9.112337E0,1.7926256E1,1.2265702E2,5.7405174E1,1.4E1,1.14E2,2.2199583E0,4.65E2,4E0,3.2E1,9.661E3,7.798E3,3.4927847E0,5.0691104E0,-2.0381458E-1,-1.37088E-1,-5.4771354E-4,1.9650051E-1,5.6062645E-1,-2.335092E-1,1.373807E0,9.239669E-1],"split_indices":[1,1,1,1,3,0,4,1,1,0,0,0,0,1,1,0,1,1,1,0,0,0,0,0,0,0,0,0,0,0,0],"split_type":[0,0,0,0,0,0,0,0,0,0,0,0,0,0,0,0,0,0,0,0,0,0,0,0,0,0,0,0,0,0,0],"sum_hessian":[1.8549E4,1.8492E4,5.7E1,1.8435E4,5.7E1,4E1,1.7E1,1.8376E4,5.9E1,2.8E1,2.9E1,4E0,1.3E1,1.8196E4,1.8E2,2.9E1,3E1,1.7804E4,3.92E2,1.19E2,6.1E1,1.4E1,1.6E1,1.6783E4,1.021E3,2.87E2,1.05E2,1.16E2,3E0,3.8E1,2.3E1],"tree_param":{"num_deleted":"0","num_feature":"8","num_nodes":"31","size_leaf_vector":"1"}},